#include "ap_int.h"
#include <cstdint>
#include "ap_fixed.h"

#define n_inputs 768
#define n_layer1 32
#define n_layer2 16
#define n_layer3 5

void float_to_fixed(float input[n_inputs], ap_fixed<32,8> output[n_inputs]);

void hwmm_layer1(ap_fixed<32,8> input[n_inputs], const ap_fixed<32,8> weights[n_inputs][n_layer1], ap_fixed<32,8> output[1][n_layer1]);
void hw_act_layer1(ap_fixed<32,8> input[1][n_layer1], ap_fixed<32,8> output[1][n_layer1]);
void hwmm_layer2(ap_fixed<32,8> input[1][n_layer1], const ap_fixed<32,8> weights[n_layer1][n_layer2], ap_fixed<32,8> output[1][n_layer2]);
void hw_act_layer2(ap_fixed<32,8> input[1][n_layer2], ap_fixed<32,8> output[1][n_layer2]);
void hwmm_layer3(ap_fixed<32,8> input[1][n_layer2], const ap_fixed<32,8> weights[n_layer2][n_layer3], ap_fixed<32,8> output[1][n_layer3]);
void hw_act_layer3(ap_fixed<32,8> input[1][n_layer3], ap_fixed<32,8> &pred);
int nn_inference(float input_img[n_inputs]);

namespace weights{

const ap_fixed<32,8> layer3_weights[n_layer2][n_layer3] = {{-0.21038844, 0.40631142, 0.036513973, -0.030608887, 0.42813194},
{0.4123509, 0.28091675, 0.07217946, 0.059555013, 0.15063614},
{-0.15141156, -0.0704397, -0.25799203, -0.38530034, 0.81309736},
{0.51894265, 0.49215767, 0.44066554, 0.05545274, -1.0245905},
{-0.3054755, 0.46030048, -0.035320424, 0.4107101, -1.9237337},
{-0.017190391, -0.086182036, -1.4485109, 1.1067963, 0.91142803},
{-0.44531468, -0.48423603, 0.68739253, -0.5464064, -0.384564},
{0.66642964, 0.5769697, -1.085753, 0.2893521, -0.44614363},
{0.60151803, -0.9466914, 1.2378418, -1.2831814, -0.10939597},
{-1.0231643, -1.3729537, 0.90464187, 1.082538, 0.82885146},
{-0.4856678, -0.2710285, 0.15950781, -0.40024447, -0.35669488},
{-0.13676706, 0.12414795, 0.021707892, 0.38669682, -0.00975287},
{0.46088657, -0.03707451, -0.3661695, -0.4370202, 0.4689105},
{-0.10447387, 0.45719525, -0.1532204, -0.1554871, -0.36698115},
{-0.7478514, 0.3240132, -0.27700213, 0.5082776, 1.1611774},
{-0.059448976, -0.49766967, -0.3549793, 0.3603091, 0.36769623}};


const ap_fixed<32,8> layer2_weights[n_layer1][n_layer2] = {{0.30316132, -0.10721618, 0.9103747, -1.0040853, -1.3128264, -0.74042946, 0.50806344, -1.7754165, 1.1142446, 2.3167682, -0.16517375, -0.28477815, 0.26297852, -0.33710682, 1.0054353, -0.30948237},
{-0.15091628, 0.20596634, 0.77162665, -0.5345586, -0.22207211, 0.6645436, -0.061528757, -0.11613757, -0.7400314, 0.34541684, 0.1454668, 0.28681317, -0.19389248, 0.17245805, 0.89754176, 0.21616928},
{0.09000316, 0.25981256, -0.037757665, -0.17409354, 0.32492945, -0.22913504, -0.0398044, -0.33155704, -0.34217787, -0.29959404, -0.15877013, -0.08527225, 0.34568682, -0.02390182, 0.12435183, -0.12169927},
{0.047670074, 0.22159429, -0.07592223, 0.21383183, 0.35256478, 0.3388621, 0.17818001, 0.31052604, 0.24718307, -0.35453027, -0.34289697, 0.0982936, -0.22099386, 0.058623757, -0.29814795, 0.089310445},
{-0.35827807, 0.2023182, -0.32202697, -0.057827532, -0.30523577, 0.024275858, -0.29975808, 0.13661745, 0.27464858, 0.26302102, -0.33935732, -0.22371446, 0.3295918, 0.26716888, -0.07673197, 0.0675809},
{0.07945448, 0.16728601, 0.12469903, 0.0047919154, -0.2858337, -0.10595304, 0.06305894, 0.06397748, 0.16319397, 0.21210864, 0.30289808, 0.28211108, -0.13924214, 0.31680688, 0.2516969, 0.25362816},
{-0.06345409, -0.002582004, -0.07805233, 0.2782626, -0.26089743, -0.10663446, -0.23610352, -0.08676437, -0.08496128, 0.2319695, 0.038814634, 0.11081132, -0.08442624, -0.19540751, 0.13814646, 0.29878125},
{0.13990745, -0.34923983, 0.39019448, -0.061119344, -0.68250966, -0.08633756, 0.15230252, -0.46710536, 0.7159413, 0.3826725, -0.13873284, -0.12890041, 0.06905852, -0.30545467, 0.14896098, 0.30655864},
{-0.35027403, 0.30184212, 0.15444729, -0.17376353, -0.2856201, -0.018622845, -0.18367681, -0.1761536, -0.14482121, -0.016954511, 0.10350633, 0.2483078, -0.27856606, -0.021035582, 0.09748086, 0.067491174},
{0.049109854, 0.10555364, -1.0491601, 0.64419305, 0.70535535, -0.8846459, 0.69023544, -0.40996236, 0.24030407, 0.3656382, -0.17077734, -0.23042768, -0.0024303526, -0.23812698, -0.45521462, -0.24039143},
{-0.16476278, 0.2659384, 0.31512782, 0.04919751, -0.33910957, -0.11205912, 0.3236152, 0.09907116, -0.018585648, -0.1495751, -0.16835229, -0.1191531, -0.3434029, 0.021792604, -0.069194734, 0.04223095},
{-0.19756395, -0.14105025, -1.9835683, 2.1488132, 1.621248, -2.1220403, 1.0434002, -0.6045438, 1.2120342, 0.37176782, -0.25859156, -0.081994325, 0.2251127, -0.08018422, -1.9015313, -0.2789506},
{-0.32988155, 0.2948231, -0.16052337, -0.009363118, 0.12560105, -0.18510444, -0.053605877, 0.3322648, -0.054975737, -0.1377822, 0.26489505, 0.20705214, -0.024321912, -0.10001103, 0.23209435, -0.19350299},
{-0.23669371, -0.29701838, -0.20839833, -0.06775587, 0.2635043, -0.088969864, -0.11810498, 0.20564513, -0.12010202, 0.33945218, 0.06359899, -0.07490295, 0.17811891, -0.10188557, 0.14098589, 0.27578938},
{0.33319825, -0.30962443, 0.0879471, 0.25683168, 0.11292558, 0.15063402, -0.15623896, 0.23093393, 0.30996054, -0.14432515, -0.22971624, 0.20984688, 0.22979116, 0.015398995, 0.28802425, 0.24229383},
{0.12993704, 0.09669904, -0.1514389, -0.15837912, 0.18744886, 0.012560549, 0.08595193, -0.07457821, -0.11892444, -0.24879435, -0.030394286, 0.04962647, -0.20602371, -0.27807385, 0.28588617, -0.30969554},
{0.2152383, -0.28504092, -0.09227446, -0.051092684, 0.0837875, -0.30397403, -0.23555931, 0.071743965, 0.031828463, 0.24819747, -0.0042902827, -0.22729509, -0.28381848, 0.17073032, 0.340066, -0.10370265},
{-0.1474824, -0.2100599, -0.0571151, 0.17550956, -0.2769313, -0.049975283, 0.26136053, -0.29299554, 0.03637242, 0.051759616, 0.12913027, 0.35219035, -0.20079584, 0.1740633, 0.19304423, 0.18009958},
{-0.106440894, -0.12795475, -0.2734996, -0.14642747, 0.042971108, 0.25802264, -0.25000206, 0.020434897, -0.14117809, -0.16245814, 0.29831758, 0.17820874, 0.048844356, 0.080981605, -0.3409167, -0.17177348},
{0.0030835501, 0.2322596, 0.331716, 0.3268349, -0.27499586, -0.30118084, -0.2679725, -0.111111484, 0.18012814, 0.24583077, 0.2859452, -0.027021438, -0.018788133, 0.030337563, -0.1281308, -0.14040929},
{0.07614991, -0.16176875, 0.061099514, -0.14391679, -0.07589197, 0.3507274, 0.07062, 0.32365212, 0.25416246, 0.22800459, -0.03161636, -0.31450963, 0.07096037, 0.24319711, 0.13317631, -0.32570326},
{-0.07423863, -0.34791034, -0.057754934, -0.33528602, -0.25114423, 0.28038207, -0.2883448, -0.31941646, 0.06409845, -0.1146632, 0.15863517, 0.26940408, -0.099330515, 0.026287496, -0.17915672, -0.18422017},
{-0.3108973, -0.059582934, 0.2848274, 0.34662497, 0.22689022, 0.37668338, 0.07258829, 0.40780324, -0.1049528, 0.051900268, -0.16196688, -0.15415454, -0.34500763, -0.21455699, 0.12519166, -0.20115556},
{0.25931787, -0.30003005, 0.25406787, -0.34752706, -0.037854902, 0.057496905, 0.3258834, 0.31075516, 0.090414576, -0.21673487, 0.25069216, -0.2960189, 0.23044635, -0.31734923, -0.3118511, -0.102012984},
{0.31529287, 0.3218146, -0.03520668, -0.13046718, 0.17707612, 0.28053308, 0.305812, 0.15327677, 0.32405034, 0.07998301, 0.047612607, -0.26501676, 0.055084523, 0.29656747, -0.3218609, 0.24145195},
{0.09194707, 0.031147027, 0.030032333, -0.08685497, -0.4106437, -0.8489021, 0.66527814, -0.75382364, 0.4783795, -0.37276614, 0.07335776, 0.088870496, 0.054235995, -0.23768795, -0.089218736, -0.29819664},
{0.3318265, -0.29390857, -0.013751557, -0.23001839, 0.15254653, 0.25476578, -0.33317572, 0.28302538, 0.33979303, -0.006040707, 0.33612898, 0.25965276, 0.31654218, -0.15351675, -0.08987624, 0.08033744},
{0.027542185, -0.008036281, 0.26714137, -0.3148716, 0.076511376, -0.18552081, 0.14487426, 0.33428615, 0.18725951, -0.21154727, 0.21223912, -0.30390862, 0.28052956, 0.15986443, -0.17585027, 0.08512322},
{-0.17712113, -0.25929597, 0.45589054, -0.71933484, -0.70741636, 0.2974082, 0.22785294, -0.25841558, 0.33479613, 0.22528288, -0.25995368, 0.07116184, -0.111744374, 0.22298867, 0.16317855, 0.09248438},
{-0.20662877, 0.14708635, -0.06253764, 1.245241, -0.40934166, -1.0284226, 0.20600298, 0.047885966, 0.8081526, -1.2803304, 0.2769961, 0.20201543, -0.17664929, 0.285992, -1.1798824, 0.044964287},
{-0.09534061, 0.14688835, -0.13567562, -0.19035645, -0.2814164, -0.32025167, -0.1299405, 0.3132928, 0.026277216, 0.34633043, -0.12518398, 0.035493642, 0.20960422, -0.17405452, 0.2107021, -0.010442089},
{0.040769137, -0.07655092, -0.19151282, 0.28314915, 0.058277342, -0.30109182, 0.3880883, -0.11344425, 0.47018066, -0.06599531, 0.12941638, 0.021569252, -0.08906481, 0.3076939, 0.1389036, -0.20858213}};


const ap_fixed<32,8> layer1_weights[n_inputs][n_layer1] = {{-0.078358635, 0.078863956, 0.07561611, -0.09217086, 0.055670213, 0.07440746, 0.038113847, 0.03142034, -0.04879747, -0.05022362, -0.01156808, -0.2175252, -0.030101946, 0.07396342, 0.030556627, -0.057935297, 0.0230631, -0.07659957, -0.07625757, 0.07239046, -0.00014734268, 0.056844205, -0.03638151, -0.031778276, 0.014152144, 0.06620946, -0.080919765, 0.04444392, -0.025632817, -0.08438369, 0.02235186, -0.038851712},
{-0.14200939, 0.0065577812, 0.027206339, 0.071097955, -0.061070874, -0.030466087, 0.0059680534, -0.044316504, -0.0820673, 0.068055175, 0.016188944, -0.14946832, -0.055684105, -0.062621504, 0.026596894, 0.023954205, -0.035872635, -0.026705911, -0.051227916, -0.03952312, -0.05020052, -0.05301925, -0.0035466938, 0.03734801, -0.05535403, -0.086531445, -0.045734026, 0.023684481, -0.015859108, -0.013908755, 0.039195824, -0.049377512},
{-0.07022017, 0.087061554, -0.036123898, -0.041826267, 0.017386623, 0.06239873, -0.01962085, 0.0066318023, 0.021911643, 0.09658002, 0.08138329, -0.014558333, -0.0818675, 0.044296756, -0.065323, -0.087268814, 0.02909886, 0.06688071, -0.0070518046, -0.010839843, -0.07977331, -0.040449, 0.07391866, 0.05771378, 0.034227666, 0.032155663, -0.008391389, -0.037834525, -0.09215126, 0.022225946, -0.07839573, 0.02194539},
{0.047635917, -0.037274472, 0.035550512, 0.059077892, 0.06491967, 0.048156604, -0.019406324, 0.0581139, -0.035479937, -0.03972681, -0.023974841, -0.045579273, -0.06165996, -0.02030736, -0.053205043, 0.05828631, -0.07929859, -0.06862865, 0.05615901, -0.0010410411, -0.024835886, -0.021137372, 0.12451461, -0.013652659, 0.045457073, 0.0022285115, -0.046999395, 0.07627591, -0.053787276, -0.029820662, 0.027598504, -0.07729705},
{-0.0009758643, -0.031757575, -0.03162279, -0.05764784, 0.015328851, -0.079362705, 0.041471127, -0.066503234, 0.019350983, -0.062100347, -0.015702879, 0.058834784, 0.03866423, -0.022216141, 0.06740612, -0.08609169, -0.04481726, 0.047253147, -0.047604725, -0.015536579, -0.05123548, -0.07789278, 0.043048497, 0.052657675, -0.003170334, 0.008973686, 0.057671756, 0.003947789, -0.048759397, 0.051297113, 0.0003768825, 0.040723234},
{0.08965821, 0.11443439, -0.04623629, -0.063900374, 0.016203728, 0.08114205, -0.078577965, 0.02852528, -0.026430052, -0.061552733, -0.034630843, -0.04933389, -0.079797946, 0.015277307, 0.031520113, 0.015784489, -0.012983657, -0.010349493, -0.060827978, -0.032749895, -0.07794554, -0.043763634, 0.06794535, -0.012583335, -0.058832254, -0.080438286, -0.04963728, -0.0027097845, -0.0034626632, -0.08875738, 0.06592232, -0.06832731},
{0.017616311, 0.010198652, 0.025206223, -0.06618575, 0.06097721, 0.05674836, 0.07695882, 0.0046208855, -0.01272288, -0.12557948, -0.07927456, -0.10902745, 0.025458021, -0.01708472, 0.027645472, -0.07424849, 0.02450063, -0.054554403, -0.04852897, -0.016566733, -0.08330794, 0.0040915012, 0.12064791, -0.05414968, 0.003818009, -0.106342144, -0.04550858, -0.038610037, -0.07884647, 0.027553985, -0.054325283, 0.017467098},
{-0.08987926, 0.024543572, -0.036880776, 0.034138005, -0.09086387, 0.035928033, 0.078834094, -0.083239906, 0.025698937, -0.13796246, 0.035241548, -0.13280767, 0.07432606, -0.03397922, -0.009417144, -0.0024665715, 0.038746044, 0.018289005, 0.07950008, 0.023573574, -0.03898499, 0.06039454, 0.12774193, -0.05143627, -0.07898464, -0.005757729, -0.09056931, 0.038492247, -0.00918751, 0.07300452, -0.04216018, -0.019205406},
{0.05279158, 0.05490832, 0.05317992, -0.047443792, -0.07306413, 0.051510617, 0.013381815, -0.058304876, 0.013044283, -0.048888963, 0.0022956713, -0.007532147, 0.026554026, 0.032012183, 0.07637403, 0.06570966, 0.07802765, -0.045277983, 0.06764902, 0.023197638, -0.0026352596, 0.022494838, 0.14724152, 0.009760442, -0.046377577, -0.08187409, -0.025481302, 0.016859002, 0.007534767, 0.1685115, -0.03839341, -0.078808405},
{-0.07387271, -0.077392526, 0.05174601, 0.04883616, 0.0066303005, -0.0441432, 0.037727043, -0.090124145, 0.013264634, -0.08581019, 0.07598591, -0.09442775, 0.07359555, 0.01786993, 0.03530551, -0.08910351, -0.0724718, 0.012582047, -0.029492589, -0.035869297, 0.04224405, 0.023461722, 0.03224478, 0.010656122, -0.025264444, -0.03401306, -0.051350534, 0.06336847, -0.028690986, 0.14209306, -0.07425084, -0.11816133},
{0.11273763, 0.087528415, -0.08082136, -0.050240353, 0.0021999786, -0.07577493, -0.033238377, -0.08929882, 0.041574523, -0.028946152, 0.07634644, -0.114136346, 0.07793999, -0.064098716, -0.056116816, -0.07214488, -0.028095923, 0.056623686, -0.052708395, 0.03750525, -0.032181308, 0.010544017, 0.086433105, -0.043727733, 0.03128279, 0.04496636, -0.091957234, -0.035494663, -0.027604194, 0.10235833, 0.06885087, -0.12829787},
{0.024226995, 0.101817735, -0.013479531, -0.010903891, -0.008966228, -0.017289028, 0.012488151, -0.109622926, 0.0021560043, -0.13559914, 0.011552197, -0.016153054, -0.00896924, 0.074160814, 0.039376624, 0.012556823, 0.018913187, 0.01393594, 0.010617167, -0.036018122, 0.054981943, -0.04165276, 0.08588117, 0.04162696, -0.005036884, 0.06261903, -0.09146233, 0.05883791, 0.056010064, 0.023978367, -0.08170623, -0.086954325},
{0.09856572, 0.11668659, 0.02763711, -0.027124383, -0.06157244, -0.05309786, 0.040912904, 0.021699777, 0.009386323, -0.05475998, 0.037988067, 0.10285995, 0.05090072, 0.02377594, 0.01521265, -0.075324826, 0.08138828, -0.0846881, -0.0265267, -0.08822049, 0.05160007, 0.06332582, -0.008962725, 0.015953707, 0.028232718, -0.009434772, -0.018144313, 0.0477703, 0.045130283, -0.15613744, 0.04210155, 0.046010844},
{0.22551055, 0.093576185, 0.00040721148, 0.07102847, -0.051188998, 0.029929355, -0.08417377, 0.09108627, 0.07157695, 0.006970061, 0.01058551, 0.3553579, -0.043827098, 0.02386102, 0.054221034, -0.032020967, 0.012410931, 0.021118639, 0.033498533, -0.0029947816, -0.08637208, 0.018581338, 0.059342545, -0.015396155, -0.043198362, 0.14573854, 0.024089118, -0.07934165, 0.06028515, -0.14352502, 0.008105297, 0.08617007},
{0.16927925, 0.17738909, -0.053458843, -0.059132233, -0.08190222, -0.024966318, 0.009703981, 0.14462297, 0.08026408, 0.029694915, -0.00983852, 0.259272, -0.08737587, 0.04777972, -0.026434267, 0.061405502, -0.008460917, 0.088527516, -0.06294664, -0.022189138, -0.017174883, 0.07443176, -0.077678174, 0.02881906, -0.06337914, 0.07220619, -0.057939008, -0.04584126, 0.022017453, -0.16000476, 0.022296911, -0.011096716},
{0.14459763, 0.078628704, -0.022113867, -0.04564835, -0.06038095, -0.035367884, 0.059945546, 0.10496199, -0.045724396, 0.12182316, 0.031115156, 0.38103172, 0.014840634, -0.042933304, -0.046067122, 0.0022653688, 0.00022024661, 0.07170331, 0.039668657, -0.007836044, 0.07822933, 0.066471875, -0.19954698, 0.06370011, -0.043387365, 0.11904313, 0.04665098, -0.01062087, 0.18830214, -0.14758208, 0.012487552, 0.21535324},
{0.11693298, -0.013379057, -0.008353151, -0.035506316, 0.07640915, -0.028103337, 0.038392738, 0.15050516, 0.07237531, 0.018554673, 0.07050115, 0.3307352, -0.031537823, 0.024822153, 0.054998785, -0.0681494, 0.07335304, 0.027626377, 0.022052024, 0.07694942, 0.039780747, -0.016625531, -0.08483668, -0.018578338, -0.07423109, 0.21579243, -0.04858412, 0.04293337, 0.16310465, -0.15332665, 0.046693496, 0.13474457},
{-0.017539266, -0.036549397, -0.017793506, 0.009612038, -0.041666683, 0.0650204, 0.06397625, 0.10697193, 0.0068571866, -0.0031089168, -0.0669102, 0.42605072, 0.020713707, -0.055714183, 0.014389286, -0.0077167735, -0.02582879, -3.8200906e-06, -0.08160068, -0.03858846, -0.08816642, -0.0035399348, -0.11734616, -0.0061344937, 0.025291828, 0.16099705, 0.06872819, -0.08194076, 0.13305797, -0.13085014, -0.023852825, 0.21080251},
{0.058349922, 0.04997244, 0.054924414, -0.034173578, 0.0043027336, 0.010952279, -0.030458486, 0.1337124, 0.022997752, -0.08881779, -0.0003844831, 0.19324157, -0.0826091, 0.026916223, -0.08037388, -0.06562118, -0.032908976, 0.037919283, 0.047418125, -0.062163215, -0.00992659, 0.083670795, 0.045765903, 0.067668, 5.876115e-05, 0.13700986, -0.056348663, -0.077630125, 0.1398762, -0.1391405, 0.07450436, -0.021012597},
{-0.014351373, 0.20582305, 0.021645658, 0.036580432, 0.057188082, -0.014636874, -0.02471448, 0.00918149, 0.018905677, 0.016469942, -0.066660844, 0.043751847, 0.039275654, 0.025642272, 0.027105827, -0.048740536, -0.0020394325, 0.015735198, -0.022084597, 0.021582974, -0.0040010214, -0.08366886, -0.059486646, -0.022963792, 0.029554235, 0.043624587, -0.08189794, 0.011551631, 0.14391404, -0.16896385, -0.077637166, 0.06780983},
{-0.09224509, 0.22659725, 0.012359418, 0.044033375, 0.016978614, -0.048901986, -0.03940111, -0.049300477, -0.017134994, -0.019716103, 0.032489102, 0.12199583, -0.012300257, 0.07612503, 0.01685642, 0.034190994, 0.0138175115, 0.020544497, 0.03947466, 0.071972795, -0.001753014, -0.049603347, 0.1157318, -0.030884389, 0.024903959, -0.051106323, -0.008311669, 0.07189432, 0.066933736, -0.09831838, 0.071231775, -0.054080382},
{0.08260839, 0.089202076, 0.058469847, 0.037240848, -0.037292488, 0.06104651, -0.03225418, -0.14119028, -0.05364911, -0.10302505, 0.005957457, -0.1796674, -0.04686266, 0.072772466, -0.05950673, -0.007178479, -0.008137427, 0.0057904385, 0.022337476, -0.014149959, 0.036084812, 0.0043911785, 0.13684808, 0.06941435, 0.020465128, -0.095097244, -0.002752223, -0.057933223, 0.08212987, -0.038648292, -0.090131044, -0.056277983},
{-0.0415097, 0.11800102, -0.021246687, -0.0076642972, 0.010348668, 0.018925868, -0.018738436, 0.0048741493, -0.060349047, -0.00808148, -0.007205571, -0.0010655714, 0.05273484, -0.060319245, -0.00019270062, -0.08203406, -0.08336472, 0.029057916, -0.031635594, -0.0066124704, 0.0056463503, -0.04918903, 0.11640121, 0.018864008, -0.06125948, -0.040175263, 0.006985544, 0.05386122, -0.05492954, -0.1265365, 0.041468967, -0.059963625},
{0.09215885, 0.05802338, 0.06229569, -0.026413253, 0.024057182, -0.08104877, 0.052137993, -0.0430497, 0.026608072, -0.04367153, 0.008978534, 0.028575303, -0.047817886, 0.07487124, 0.08045899, 0.08187293, -0.009916842, 0.065736495, 0.005855342, -0.07994888, 0.006720053, -0.05590726, 0.12640199, 0.06091757, 0.033287942, -0.10287893, 0.022678826, 0.068906516, 0.0009890726, -0.028381852, 0.022941597, -0.041358728},
{-0.023476182, 0.031539157, -0.012437858, 0.039390344, -0.0035131874, 0.019417055, 0.03812473, 0.00088486954, 0.003150396, 0.021675335, -0.0025400454, -0.12418297, 0.009505311, 0.05461485, -0.070418976, 0.06511355, 0.0040636063, 0.0030132483, 0.069908895, -0.08020633, 0.03811363, -0.07699205, 0.064007156, -0.02915219, -0.09443257, -0.10004433, -0.05306804, -0.002877248, -0.09220493, 0.039735477, -0.06543361, -0.047733143},
{0.0046792678, 0.016711783, -0.054936696, -0.015348766, -0.008826211, 0.05759041, 0.047097575, -0.08952566, 0.025058903, -0.1039078, 0.0251714, -0.04397238, 0.029550685, 0.02520783, 0.023407415, -0.05134663, 0.06727952, -0.033411596, 0.0017568617, 0.040739242, -0.005215101, -0.040996578, 0.011392438, -0.03906561, 0.027469644, -0.0035991403, 0.03333025, -0.051200863, -0.074331895, 0.086868465, -0.013012381, -0.003014919},
{0.07647701, 0.07009915, -0.07889398, 0.005181972, 0.049894117, -0.022154398, 0.03267386, -0.043205734, 0.07916279, -0.006405843, 0.05371088, -0.017727049, -0.06193405, -0.002271399, 0.068318315, 0.03047468, -0.06254691, -0.06434138, -0.06360844, 0.032287072, -0.08509342, -0.0027209073, 0.106264524, 0.0028677955, -0.023993, 0.00046951472, -0.0060234806, 0.045516096, -0.11855067, 0.055696238, 0.041974172, -0.10763532},
{0.052998677, 0.0406491, 0.041399166, -0.056384586, 0.013500285, -0.04325537, -0.0029410901, -0.10200915, -0.05935829, -0.14127932, -0.019136155, 0.023084084, -0.07438734, -0.019170465, 0.023288043, 0.0668691, 0.0091223195, 0.022703243, 0.064254284, -0.021333018, -0.01828073, 0.057587177, 0.040852685, -0.0037628165, 0.029772842, 0.024251606, -0.028091654, 0.0007792123, 0.031929072, -0.028307356, -0.063073926, -0.06939663},
{0.032450702, -0.0048579695, -0.020154461, 0.054750714, 0.011035305, 0.054947108, -0.015068283, 0.05562675, 0.057058185, 0.03268516, 0.016746787, 0.038182653, 0.070349544, 0.07179114, -0.06452881, 0.07718301, 0.026283123, -0.0650743, 0.028631695, -0.059382763, -0.013511822, 0.008723199, 0.09877032, 0.018915158, -0.009870263, -0.06484286, -0.0021982677, -0.08315263, -0.027058225, 0.03949778, -0.021654196, 0.012555965},
{0.10728947, -0.09721776, -0.0273823, 0.0076787886, -0.011566218, -0.028165795, 0.0058868276, -0.038830444, -0.05313453, -0.04474393, -0.05342543, -0.06989125, 0.06819933, 0.049855065, -0.07759905, 0.0613904, -0.0038302615, 0.018426765, -0.046028953, 0.058058616, -0.009480536, 0.032369494, 0.08371024, 0.06820977, -0.023782907, -0.07028491, -0.0321728, 0.06228494, -0.07676295, 0.23603334, -0.07143477, -0.08068636},
{0.070237026, -0.16514458, -0.029964473, -0.060806632, 0.07565296, -0.0010290816, 0.025759693, 0.014575665, -0.0467358, 0.05562936, -0.028526563, 0.019021576, -0.045382712, -0.029272743, -0.07975193, -0.0645269, 0.0057073385, 0.069760635, 0.018779805, -0.074549384, 0.014522985, 0.068018034, 0.103354044, -0.060246132, -0.08789149, -0.08841878, -0.09055856, -0.0075607514, -0.039236527, 0.15315212, -0.062302038, 0.0026430709},
{-0.00304614, -0.16313411, -0.002941735, -0.08250456, -0.012520378, 0.044638515, 0.052577604, -0.11598804, -0.0002759546, 0.0051179207, 0.03922715, -0.054118134, -0.09249552, -0.0709568, -0.037030827, -0.0025627897, 0.08342606, 0.02198321, 0.00070254435, 0.042555533, -0.025943384, -0.060578257, 0.18620594, -0.09226974, 0.029798402, -0.1457629, 0.016281461, 0.07307974, -0.14221291, 0.29482785, 0.039945222, -0.025694884},
{-0.11699815, -0.11217112, 0.07709053, 0.063484065, 0.009502968, 0.041730925, 0.0003998995, 0.04016828, -0.037426453, 0.10796991, -0.021309959, 0.016788652, -0.05266552, 0.012057432, 0.05903684, -0.068781264, -0.056021526, -0.031575378, 0.07418288, 0.07358006, -0.060312003, 0.008675091, -0.060714457, -0.07093145, -0.06431943, 0.13218127, 0.017625587, -0.06173162, 0.03511051, 0.09880364, -0.034080625, 0.20894906},
{-0.063258365, 0.073265105, 0.038435176, -0.08873552, -0.06806033, 0.042890325, 0.019427957, 0.08739343, 0.034035593, 0.14867626, -0.054058596, 0.10904426, -0.08253587, 0.024686074, 0.031579025, 0.02559631, -0.06808209, 0.07016834, -0.009165895, 0.061296556, 0.056962445, -0.06436384, -0.012008075, -0.020884233, -0.05834845, 0.10487859, 0.06881996, -0.040528696, -0.031935826, -0.0334548, -0.068569675, -0.03534508},
{-0.120675124, -0.11634546, -0.047151335, -0.009572147, -0.036165733, 0.0071302354, -0.014297712, -0.0025851235, 0.025484659, 0.10317796, -0.029967172, -0.0026304624, 0.0046107178, -0.043770753, -0.023015246, -0.00016226529, -0.023642123, -0.035482224, 0.042017672, -0.03192956, 0.063625686, -0.009374574, 0.08575651, 0.04155008, -0.09050355, -0.047029812, -0.06558268, -0.08046049, -0.02052807, -0.053996824, 0.056375112, 0.03830906},
{-0.00091268297, 0.12174601, 0.04184875, 0.05442132, -0.020588217, 0.014418647, 0.06697121, -0.046873864, -0.06252031, 0.08384913, -0.05323214, 0.026384767, 0.044629723, -0.032578114, -0.08140904, 0.000810865, 0.07576613, 0.057343267, 0.054292355, 0.017951896, 0.007625007, -0.079750635, 0.09206456, 0.04127508, -0.061403256, -0.025469426, -0.043083593, 0.05743288, -0.06342683, -0.06688745, 0.02803083, -0.050130803},
{0.031794813, -0.04965434, 0.06017424, -0.06806853, 0.060973108, 0.012648359, -0.015394427, 0.013363809, 0.010894857, -0.0024700547, 0.0435062, -0.059193958, -0.06070328, -0.011486228, 0.08046176, -0.05858997, 0.015661202, -0.016502688, 0.052667163, -0.06592798, 0.010980974, 0.037256584, 0.0007634861, -0.06866183, -0.09153737, -0.09608783, 0.07850431, 0.021658922, 0.056041613, -0.092460565, 0.021338547, -0.09736393},
{-0.06392948, 0.102130346, 0.07819775, -0.08729631, -0.055377845, 0.041035503, -0.037349176, -0.04013322, -0.06859698, -0.038547818, -0.013366095, 0.017917816, -0.016476253, 0.00044015673, 0.061850894, -0.045381125, -0.04220934, -0.031164167, -0.0010466687, 0.035900097, 0.05403253, -0.007972039, 0.15397179, -0.022608064, -0.08286754, -0.016546715, 0.04574896, -0.02492369, -0.0063105864, 0.030781593, 0.034631673, -0.09264753},
{0.08346796, 0.08846867, -0.08533271, -0.08271699, -0.059832904, -0.006919317, 0.010256621, -0.05021765, 0.0488099, -0.111396894, 0.03655978, -0.04962374, 0.006719884, -0.061280847, -0.036987368, 0.031863987, -0.051096357, 0.025745707, -0.06473006, 0.07470906, -0.027482, 0.013190195, 0.0033909138, -0.06397605, 0.05455665, 0.0013744074, 0.071323775, 0.04432127, 0.069354184, 0.020184793, -0.07971675, -0.010381605},
{0.007711364, -0.00674058, -0.041045204, 0.02605246, 0.035088852, -0.011369489, 0.010843369, -0.10811801, 0.061562657, 0.01384245, -0.013748425, 0.031670064, 0.05937604, -0.0059837983, -0.038792834, 0.05464701, -0.045208182, -0.03990714, 0.06263018, 0.019150255, -0.001285963, 0.005813144, 0.068506, -0.08859334, -0.029325306, -0.061274245, -0.07275855, -0.020618565, -0.041191515, 0.044058725, 0.01495045, -0.030596172},
{0.091519766, -0.010483001, 0.022733048, 0.055649754, -0.046757735, 0.04189287, 0.07894431, -0.031801417, -0.066127166, -0.13470897, -0.010032553, 0.013164862, -0.06383487, -0.03317808, 0.019131353, -0.032906905, -0.07164606, -0.0062988373, -0.004425797, -0.07532464, 0.05690937, -0.042086754, -0.00892741, -0.0286744, -0.0007372203, -0.058046054, 0.05484953, 0.008505469, -0.019170312, 0.08027433, 0.05117917, 0.020037537},
{0.18441623, 0.070515096, 0.0069006085, 0.004594196, -0.039245334, -0.07326496, -0.014242284, -0.038488716, 0.081808254, -0.1228274, 0.075536765, 0.112505876, -0.018953133, -0.08870393, -0.016607981, -0.0109369755, -0.024412941, 0.005134092, -0.057579353, 0.024068978, 0.0025027217, -0.08626501, 0.061460763, -0.051420543, -0.057568792, 0.04712997, 0.070476554, 0.07636946, 0.049315028, 0.056068864, 0.07175521, 0.02982335},
{0.21837154, 0.1296602, -0.015766196, -0.046622545, -0.057596944, 0.0032951161, 0.017709292, 0.0862576, 0.0630185, -0.029261407, -0.025407715, 0.17517346, 0.053781725, -0.09001575, -0.00849225, 0.038621172, -0.018087327, 0.01855799, 0.01828892, -0.086283915, -0.009106338, 0.06542829, -0.0853541, -0.005223981, -0.044608556, 0.1519404, 0.040819902, 0.045527942, 0.16410707, -0.04856558, -0.08532597, -0.009335085},
{0.12523161, 0.18002835, 0.050596625, 0.019586759, -0.042343695, -0.024253622, -0.037278827, 0.016746474, -0.05109549, 0.07280237, -0.017467275, 0.29162955, -0.07887118, 0.025150549, 0.010350236, -0.045764055, 0.07296489, -0.034131937, 0.02711127, -0.05303859, -0.050067235, 0.03187932, 0.03091165, -0.047976255, -0.009808668, 0.126249, -0.024890903, -0.076648556, 0.008746034, -0.011853784, -0.07540936, -0.03582914},
{0.17775184, 0.18849063, 0.081517935, 0.019881584, 0.05272211, 0.005183324, -0.022280049, 0.03959775, -0.028519984, 0.019086592, -0.084646985, 0.363464, -0.028597811, -0.0027072479, 0.03282071, -0.07047675, -0.07862113, 0.048661195, -0.08874809, 0.041083936, 0.051243912, -0.041278377, -0.09826439, 0.008018473, 0.010809726, 0.15354307, -0.076160885, 0.014540991, 0.05012824, -0.05791334, 0.059042025, 0.017300231},
{0.11084107, 0.0583308, 0.04378599, -0.0073813554, -0.060572695, 0.07679416, 0.012798496, 0.090491034, 0.024932906, 0.00086867483, -0.007509285, 0.33803836, 0.044662856, -0.04089763, -0.08682154, 0.038133807, -0.00017436594, 0.028089061, 0.028445205, -0.058850612, 0.022742344, -0.00035629421, -0.023417264, 0.053556006, 0.07937997, 0.11494608, 0.015070549, 0.0023772113, 0.06861753, -0.16739608, -0.075268246, 0.039751302},
{0.14272079, -0.00012508374, -0.03955182, 0.07846076, -0.08441373, -0.00968191, 0.029831242, 0.07723796, -0.017005451, 0.05385074, 0.030475633, 0.43822476, -0.05314579, 0.002712239, 0.031055512, 0.023875408, 0.07094762, -0.08212461, 0.019774044, 0.045000613, 0.07588584, -0.05474069, -0.07608167, -0.047956936, 0.000110709065, 0.09495154, -0.043785978, -0.01977146, 0.06682321, -0.15167646, 0.06610789, 0.16533515},
{0.16192675, 0.008719455, 0.058952063, -0.031567805, 0.002065541, -0.011505552, -0.02060745, 0.14757073, -0.059150927, 0.07351563, -0.053379077, 0.27827373, 0.046405584, -0.06484838, -0.04784368, -0.027677577, -0.07060374, 0.0060586734, -0.082264185, -0.026363976, -0.07135374, 0.039407015, -0.2319869, -0.03460245, -0.049724452, 0.16254072, 0.04902645, -0.07377182, 0.22721128, -0.06461611, -0.0011848928, 0.16293329},
{0.09314431, 0.022581466, 0.08219893, -0.05397019, 0.012203811, -0.06440361, -0.06721458, 0.14166254, -0.018983312, 0.03550993, 0.013199507, 0.3276622, -0.027658165, -0.036657955, 0.07857384, 0.055573646, 0.08172488, -0.076800056, -0.026459228, -0.0070387176, -0.08244075, 0.046668693, -0.084326215, -0.022077892, -0.042422183, 0.29426032, 0.062948346, -0.034294765, 0.17049408, -0.1275321, 0.039836276, 0.09569596},
{-0.006900756, -0.0034891749, -0.010567017, -0.061284747, 0.03260058, 0.026087917, -0.072489016, 0.09991048, -0.019705586, 0.046974618, 0.037022274, 0.35403854, 0.0025705346, -0.018690143, -0.015852712, -0.0032547426, 0.06754857, 0.023298876, 0.008230594, -0.087183625, 0.049298756, 0.056403562, 0.019512132, 0.03397139, 0.08029811, 0.13522734, -0.05742619, -0.020886503, 0.07713003, -0.13114884, -0.018804401, 0.19993071},
{-0.07743848, 0.0764678, 0.033519216, -0.039250143, 0.057412166, -0.06164006, -0.04413627, 0.07377627, -0.08470167, 0.03818378, 0.007943624, 0.2684195, 0.03680242, -0.036617987, 0.03362816, -0.0013398374, -0.0770581, 0.07115247, 0.012279462, 0.016822146, 0.023204656, 0.061412007, 0.026532529, -0.035916902, -0.06472259, 0.13594757, -0.083103254, -0.028336247, 0.11235683, -0.019544236, 0.06271035, 0.043491468},
{-0.021637656, 0.1735068, -0.030936442, -0.088344015, 0.037706077, 0.08133592, -0.046014965, 0.05469857, 0.025502972, 0.019479001, -0.023565685, 0.23992236, -0.02474137, -0.068269365, 0.07617052, -0.011324085, 0.062877655, -0.07280394, 0.041266225, -0.045925494, -0.017569875, 0.008740589, -0.023297884, 0.006138259, 0.03172092, 0.14760764, -0.07990677, -0.057851695, 0.018090976, -0.1881974, -0.036738932, 0.02728453},
{0.09937006, 0.03875023, -0.017405868, 0.042122483, 0.07416202, -0.055196196, -0.06619193, 0.095380105, 0.0700189, -0.005409942, -0.061634496, 0.33456984, -0.08051171, 0.044298723, 0.062809154, 0.080520146, -0.029948141, -0.06038225, -0.047893215, 0.057726365, -0.037771262, -0.06285528, -0.028952237, 0.015274682, -0.09166937, 0.15036198, -0.08002562, -0.08497956, -0.040684074, -0.014007299, -0.056877464, 0.09086877},
{0.19659372, 0.081414156, 0.0333051, -0.05091248, -0.0066933376, 0.04369974, 0.08048621, -0.0065504597, 0.06871937, -0.015053887, -0.076773986, 0.15461706, -0.022440482, -0.036589585, 0.01937993, -0.06105882, -0.05900251, -0.033033088, 0.07404564, -0.0069514164, 0.018170275, 0.08429295, -0.05310133, 0.011093135, -0.003821451, 0.16535771, 0.053525962, -0.051455006, 0.069287896, -0.033804554, 0.022283942, 0.04167695},
{0.12288601, -0.0021940623, -0.07773778, 0.04867162, -0.037591476, -0.07223609, 0.0253715, 0.109518364, -0.024806648, -0.0014644203, 0.053399388, 0.10570821, 0.025230823, -0.008221957, 0.03239485, 0.0009392096, -0.019695856, 0.0022511554, -0.059055157, -0.05442453, -0.0077545773, -0.011349171, 0.054307014, 0.03007929, -0.015294863, -0.03272741, -0.026558721, -0.001675972, -0.011206138, -0.112094, -0.019409513, -0.017532043},
{0.10000905, -0.0068139667, -0.0694591, 0.028166872, -0.09021935, -0.08650316, -0.05852692, 0.02693741, 0.025965296, 0.042472716, 0.077412486, 0.101961486, 0.009771043, -0.021409383, -0.04390973, 0.031574342, 0.002626814, -0.060704038, 0.03207935, 0.019364398, 0.0045558633, -0.077825114, 0.080996186, 0.069681436, 0.07557635, -0.09110674, 0.071985856, -0.048923317, 0.082522415, -0.06724781, -0.022627214, -0.032214887},
{0.12301924, -0.003478272, -0.024306025, 0.047087654, -0.049549162, 0.078729525, 0.074966244, 0.03003034, -0.0017875507, -0.08363154, -0.07138697, 0.020020327, 0.07356043, -0.044184484, -0.037930366, -0.020880736, -0.066702664, -0.038580023, -0.08474528, 0.05382485, 0.018406983, 0.050952032, 0.15056847, -0.08857878, -0.030534856, -0.03960978, -0.03821132, 0.015882988, 0.0008997811, 0.0624074, 0.034859445, 0.0022620377},
{-0.026681473, 0.062298775, 0.054113626, 0.053501844, -0.03361783, -0.058396503, 0.058198743, -0.018588176, 0.0027960464, 0.022986121, -0.07727221, -0.07891708, 0.06802994, 0.031819317, 0.054114632, 0.030552195, -0.08518225, -0.027335413, 0.057124306, 0.03100405, -0.043468792, 0.0028236732, 0.0868879, -0.034741588, 0.0018326859, -0.07361171, 0.0453346, -0.0353008, -0.034997202, 0.07265421, 0.004601814, -0.09191371},
{0.060216784, 0.13287112, -0.0060722455, -0.019089699, 0.06683713, -0.079716444, -0.05859888, -0.06106592, 0.03419894, -0.15876657, 0.03077125, -0.092975534, -0.0032960284, 0.029849207, 0.0030780777, -0.026833506, -0.031036273, -0.009202011, 0.063322134, -0.030803122, 0.015748557, -0.04335861, 0.07860011, 0.023562204, 0.04402014, -0.08586896, -0.08454019, -0.052523747, -0.025827914, -0.043576766, 0.073116, -0.08999815},
{0.05441373, 0.020722775, 0.055749685, -0.05111248, 0.020734124, 0.03137227, 0.061904863, -0.09550725, 0.06052926, -0.013635045, 0.01845723, 0.082609646, 0.06733207, 0.036946204, -0.056633316, 0.020372469, -0.0050115585, -0.06118786, 0.073503844, -0.05874996, -0.013197864, 0.039704815, 0.035915896, 0.035576075, -0.040500976, -0.04567376, -0.05369843, 0.043978043, -0.07326584, -0.08293557, 0.06556368, -0.027298879},
{0.059129547, 0.039576326, 0.0018878803, 0.046847902, 0.057114277, -0.08091347, -0.07992939, -0.10836899, -0.03564892, -0.055045903, -0.07711935, 0.024980098, -0.015149943, -0.07848057, 0.06811227, -0.027983464, 0.0060979724, -0.036497593, 0.06397518, -0.027766345, -0.06852812, 0.07475366, 0.07257509, 0.050761852, -0.057625536, 0.060812302, -0.07036678, 0.0034537928, 0.098170735, 0.10021889, -0.004650506, 0.0038433587},
{0.066898845, -0.032916185, -0.07041798, 0.009734496, -0.077351846, -0.07599656, 0.026929384, -0.02784493, 0.0011688247, -0.15579565, 0.037331227, 0.0054699373, 0.040467653, -0.052479386, -0.010248723, 0.027714545, -0.043311406, 0.07235215, -0.008287433, -0.079351686, -0.08508513, 0.001721479, 0.14835258, -0.06533119, -0.058807768, -0.094610974, -0.026732562, -0.085868366, -0.08442285, 0.14293659, 0.06548603, -0.05475566},
{0.0192777, -0.09948912, 0.061798364, 0.054097407, 0.05378254, -0.014016598, -0.025933499, -0.06434593, 0.018740386, 0.087477975, -0.020839026, -0.10705099, -0.026062552, -0.020655258, 0.05732115, 0.07025459, -0.0110524, 0.08341749, 0.0004247167, -0.08802254, 0.027090104, -0.0067875236, 0.13633296, -0.08740269, 0.04487307, -0.024425406, 0.062261812, 0.046752445, -0.07627929, 0.024171632, -0.08820789, -0.018455522},
{-0.0032205428, -0.014263809, -0.06414886, 0.051053517, 0.05312013, 0.07659833, 0.03032025, -0.02007539, -0.04510319, -0.037882302, -0.011814594, -0.18047345, -0.080171965, 0.00069558347, -0.0111016985, -0.046955343, -0.046100657, -0.046331618, 0.03713278, -0.054604657, 0.0643664, -0.060072016, 0.15844852, 0.07004017, -0.026561221, -0.13142909, -0.038525797, -0.011015297, -0.033312663, 0.15269135, 0.07207012, -0.07517778},
{-0.12177653, 0.08224224, -0.07026358, -0.028850516, -0.017695187, 0.0008158088, 0.050971534, 0.11045801, -0.025351439, 0.10064436, -0.046380382, -0.07117916, -0.08548341, 0.0023659517, -0.053840403, -0.011848522, -0.048619796, -0.056970757, 0.07402015, 0.053239316, -0.04194346, -0.06579338, -0.005136965, 0.04835472, -0.051413003, 0.08788865, 0.06241259, 0.0036516387, 0.022227729, -0.016426066, 0.011079483, 0.1268199},
{-0.11565517, 0.051908065, 0.08370975, 0.06214496, -0.09361845, -0.0696957, -0.022549706, -0.063040026, 0.04650928, 0.040910587, 0.07439976, -0.099573046, -0.07324854, -0.051339716, 0.044152416, 0.044752862, -0.07078538, 0.022988182, 0.02642414, 0.06204246, -0.0085039, 0.010494374, -0.037172362, -0.017745323, -0.0060245628, 0.05124996, 0.02308504, 0.03801148, 0.006793512, 0.13605459, 0.07056313, 0.044053905},
{-0.23901275, -0.08284257, -0.0067546144, -0.0125348335, 0.0066694417, -0.07844005, 0.031256203, -0.07982446, 0.013868555, 0.015002933, 0.024369234, -0.021265136, 0.034813955, -0.05880489, -0.0031345724, -0.00042390559, 0.0074833483, -0.068954416, -0.06891532, 0.064390555, 0.018964527, 0.022895522, 0.024061669, -0.028922169, 0.056639373, 0.038411546, -0.0364661, -0.034423947, -0.16634218, 0.1063475, -0.010439138, 0.014535835},
{-0.023193363, 0.10764936, -0.068988144, -0.06367484, 0.041947138, 0.036091544, 0.042048793, 0.009805295, 0.07533084, 0.0013090546, 0.0046299216, -0.07308612, -0.05050316, 0.060752526, 0.051362287, 0.06986626, -0.0658095, -0.0817285, 0.0609528, -0.08018235, -0.015251987, 0.057520613, 0.06580232, 0.011209724, -0.072490714, -0.03849312, -0.059852064, -0.037134092, 0.057043497, -0.05767576, 0.028906127, -0.03454899},
{0.10983313, 0.016607646, -0.066104576, 0.04197642, -0.074913844, -0.022983856, -0.043530203, 0.084187426, 0.048827916, -0.029156758, -0.027263809, -0.054010898, -0.00016497102, -0.0010626034, -0.092392094, 0.0561936, -0.08014003, -0.06721506, -0.014166531, -0.09167714, 0.011842562, 0.063473925, 0.02058505, -0.008998532, -0.071666054, 0.023945728, 0.06969181, -0.041923214, 0.06319392, -0.16609177, -0.07635118, 0.02107156},
{0.15484889, 0.015294434, 0.05902107, -0.014479127, 0.056009177, 0.06077394, -0.07158377, 0.027578764, 0.026269391, 0.032686822, -0.06460548, 0.12290754, 0.05014875, -0.07145225, -0.07309882, -0.0034866044, -0.06499122, 0.0136909885, -0.04250976, -0.07446596, 0.05969307, 0.031042881, 0.021291416, 0.010785997, -0.030656328, 0.0040227636, 0.0007997053, -0.0016923134, 0.08618289, -0.105746716, 0.07734568, -0.09864517},
{0.22520238, 0.0394138, -0.011643708, -0.057243835, 0.056478288, -0.058453076, -0.06949536, 0.042508718, 0.07364993, -0.058068857, 0.054479577, 0.11379337, 0.071259014, 0.044864833, -0.07098678, -0.09050883, -0.055794153, -0.0102560595, 0.00089470687, -0.00892908, -0.04287085, 0.023836046, 0.011626543, -0.08498637, -0.063779436, 0.03199867, 0.016725175, -0.047784917, -0.014205798, -0.18449007, -0.017361527, -0.10336037},
{0.18849573, 0.100331426, -0.05731225, 0.073181, -0.01051159, 0.08088182, -0.041795682, -0.03193277, 0.014551662, -0.11437249, -0.010064537, 0.11147272, -0.0085475, 0.054012433, -0.064264484, 0.053555626, -0.08568655, 0.0068555493, -0.05463585, 0.024138816, 0.058486663, 0.00016301125, 0.05131894, -0.038682446, 0.0008474701, -0.029369652, -0.006312013, -0.010149173, 0.0068833893, -0.10303087, -0.0505396, 0.06456775},
{0.1372556, -0.015142479, -0.0007837862, 0.008855608, 0.017745221, 0.052225932, 0.022284858, -0.025636869, -0.00480593, -0.08962303, 0.02347019, 0.07712375, 0.019524232, -0.07838159, 0.00807561, 0.022884402, -0.0832067, 0.009866955, 0.041956924, -0.08416965, -0.032904726, -0.023728922, -0.037263464, 0.046507325, 0.027284406, -0.017750608, -0.04919784, 0.035463907, 0.115904965, -0.047156885, -0.051528037, -0.0065579247},
{0.20087922, 0.10373491, 0.02988083, -0.03534222, -0.0609109, 0.044823214, 0.015362351, 0.058530275, 0.0062992275, 0.00913943, 0.019779444, 0.2271106, -0.030689133, -0.07797668, -0.08566442, -0.030539334, -0.010729842, -0.082683414, -0.0012064615, 0.073251665, -0.009317962, -0.040112197, 0.0023155138, -0.026982525, -0.029001743, -0.02064483, 0.059468042, 0.02331142, 0.10314602, -0.03876245, 0.055341333, 0.016024206},
{0.19078022, 0.05855134, -0.04938359, -0.015993416, -0.036928903, 0.0288959, 0.03450594, 0.03696507, 0.041394517, -0.07420379, 0.018191388, 0.1736214, -0.001454684, 0.050810263, 0.06040872, -0.042747293, 0.075487345, 0.02633273, -0.0032929096, 0.063632205, -0.07276717, 0.008585975, -0.05968512, -0.057289723, 0.026123676, 0.081527114, -0.09040342, 0.04859907, 0.16436389, -0.02258943, -0.04538329, 0.1200549},
{0.2568943, 0.049363032, -0.07460324, 0.056636944, -0.08387026, 0.063560024, -0.08949227, 0.06656531, -0.08245372, 0.08157689, -0.078692645, 0.25555003, -0.07333141, 0.0037209012, -0.059056137, -0.022751756, 0.056999043, -0.03615841, -0.054684076, 0.05507838, 0.07215769, 0.041442856, -0.013679705, 0.0692422, 0.0129739465, 0.011268155, -0.067164265, 0.058753908, 0.13214572, -0.04837394, 0.071560934, 0.0118682},
{0.119986586, 0.08624074, 0.0034708679, -0.02936302, -0.0016778841, -0.07378594, -0.042883918, 0.09520062, -0.071252346, 0.04599672, 0.057270817, 0.2805419, -0.075583175, 0.025258236, -0.048984073, 0.013538705, -0.031741496, 0.022301385, -0.055519916, -0.049240664, -0.09048223, -0.06358264, -0.035918914, -0.014910744, -0.08912922, 0.18247925, 0.06273479, -0.009497083, 0.10198091, -0.08295284, 0.019268462, 0.124436945},
{0.07489937, 0.03483984, -0.010735214, 0.014327948, 0.04054936, -0.07666478, -0.04303418, 0.12531301, 0.049143434, 0.102158576, 0.07634456, 0.37467998, -0.09147002, -0.081760734, -0.017579224, -0.016780024, -0.02698413, -0.006765541, 0.07877589, -0.014015744, 0.016755598, -0.020941265, -0.0987004, -0.087855235, -0.02835481, 0.22607747, 0.0517484, -0.024443444, 0.025331413, -0.034390613, -0.059974786, 0.13002837},
{-0.0372054, -0.043560077, 0.06374015, 0.0022758425, -0.049101014, 0.040513113, -0.04552537, 0.13537775, 0.07851006, 0.03686693, 0.082966566, 0.20847736, 0.021567732, -0.033930756, 0.0069200746, -0.0765148, 0.015677348, 0.03920716, -0.031054532, 0.023877349, 0.028852785, -0.06409552, -0.08422458, -0.058495417, 0.07870849, 0.19358979, 0.00075100403, 0.03139405, 0.018505624, -0.17292106, -0.007769356, 0.048810195},
{-0.049622174, 0.07719058, -0.04020664, -0.067586064, -0.040903844, -0.023462713, 0.05692459, 0.1028925, 0.011682034, 0.10926765, 0.019689806, 0.24523772, 0.012719986, 0.009358476, 0.023829736, -0.06191176, 0.003401287, 0.05930664, -0.08098632, 0.033016693, 0.048186548, -0.023518734, -0.11119538, -0.043335322, 0.024343435, 0.08343676, -0.04534163, 0.06921088, 0.055619475, -0.1452401, -0.050458, 0.11136069},
{0.02449966, 0.09975372, -0.06486219, -0.029953562, -0.043544605, 0.0023206323, -0.013828854, 0.11810601, -0.02806491, 0.037533265, 0.012268012, 0.16137768, 0.056527313, -0.0017196973, -0.07274498, -0.011003804, -0.07180135, 0.036079988, -0.003959501, 0.05468816, -0.017083455, 0.012970358, -0.020809766, -0.030832035, 0.029727597, 0.030413529, -0.025533425, -0.031004226, 0.14389, -0.23040985, -0.06274297, -0.010536382},
{0.055832703, 0.10879361, 0.048023, -0.084199645, 0.031751253, -0.030491814, 0.016433595, 0.05326505, -0.08622875, -0.08912164, -0.031786777, 0.21042219, 0.029080557, -0.047134735, -0.009982466, 0.017535409, -0.044406127, 0.04717566, -0.020253783, -0.036433686, -0.056289203, 0.017066278, 0.013462659, 0.04037422, 0.008327176, -0.0041025872, -0.073088475, -0.047466222, 0.11970326, -0.12655458, -0.023297349, 0.01742442},
{0.03139216, 0.07687657, 0.027621172, -0.034628045, -0.05637878, 0.084071815, -0.054291833, 0.09711809, -0.051746573, -0.065397106, -0.07039332, 0.2180372, -0.091819815, 0.037978794, -0.03698438, -0.054241445, 0.072171494, 0.055894997, 0.05431392, 0.032253888, 0.038605902, 0.054324865, 0.07535211, 0.050975494, -0.057792842, 0.111939654, -0.07563486, -0.011862954, -0.021739857, -0.046651594, 0.07254869, 0.11157481},
{0.25611636, 0.055804875, 0.051350817, 0.07353881, 0.06524971, 0.06947711, 0.0112423245, 0.065504335, 0.0768619, 0.07619738, -0.045666948, 0.19600378, -0.076893255, -0.089128055, 0.0021969536, -0.0337046, -0.068871886, -0.019816864, 0.0518536, 0.025494559, -0.017523414, 0.031616867, -0.040705137, 0.041303817, -0.0720594, 0.176987, -0.0062263687, 0.059466224, 0.09672239, -0.09074785, -0.072719365, 0.14113317},
{0.20718953, 0.10466796, 0.08364478, -0.06358555, -0.074742466, -0.07492743, -0.06330912, 0.1070832, 0.052986726, 0.12146563, -0.068744354, 0.33699661, -0.06884579, -0.036626242, -0.018761203, 0.074408874, 0.050123096, -0.05952497, 0.033679705, -0.043221977, 0.0040913336, -0.024979386, 0.038410295, 0.01966958, -0.037017405, 0.1762246, 0.046162646, 0.07773844, 0.016825773, 0.015363784, -0.052176684, 0.07558433},
{0.17769282, -0.019342521, 0.073994696, -0.064526, -0.01379074, -0.0022560656, -0.07064821, 0.101649955, 0.017080046, 0.030936103, 0.010323996, 0.25117156, -0.009297164, 0.027864752, -0.050458293, 0.07673206, 0.009737395, -0.007514806, 0.06761562, 0.031441413, -0.0032818578, 0.0027442798, -0.021927465, -0.04191983, -0.058711283, 0.13772286, -0.0041413466, -0.009093842, 0.05389421, -0.032815985, -0.023398135, 0.027490264},
{0.16000983, -0.03502361, -0.04513788, 0.031591836, -0.042262957, -0.025811736, -0.089218624, 6.2069994e-05, -0.047279473, -0.03229805, 0.07703578, 0.11735148, 0.029779896, 0.02111013, 0.0770283, -0.015781764, 0.08406179, 0.008658945, 0.055500038, -0.073373236, -0.07776655, 0.0712903, -0.07540457, 0.0506557, -0.07113182, 0.08959967, -0.039677728, 0.045925017, 0.0038915705, -0.12552752, -0.02451138, -0.009176713},
{0.22679903, 0.16490924, -0.04081337, -0.056559704, 0.005983377, 0.05230689, -0.0682554, -0.028929321, -0.032528542, -0.053912684, -0.07893, 0.050930593, -0.08913674, 0.031604216, -0.015418841, -0.042334713, -0.07880943, 0.048371747, 0.03592477, -0.07943487, -0.06616833, 0.04368964, 0.043364998, 0.07010082, -0.08563371, 0.063174106, -0.0063334317, -0.038316913, 0.13710828, -0.071558475, 0.07424464, 0.00052910805},
{0.2771453, 0.11123754, -0.017246015, -0.040842175, -0.010387852, 0.021047577, -0.06832196, -0.002231951, -0.07377744, -0.050425302, -0.061710045, 0.09580057, 0.015282921, -0.06203356, 0.0058168895, 0.039862946, 0.07882284, -0.045608327, 0.00035736084, -0.06743414, 0.034387004, -0.010894075, 0.105366334, -0.091782466, -0.074469656, -0.074556544, 0.07437166, 0.0026589702, 0.11850195, -0.065207586, 0.07898895, -0.09194308},
{0.15183245, 0.030508136, -0.019768476, -0.07729528, -0.0902156, -0.005729206, -0.03623275, -0.0076471246, 0.0695526, -0.1381683, 0.01997129, -0.040056575, -0.031378806, -0.009842218, -0.026792744, -0.054181896, -0.06194658, -0.07667364, 0.0068166307, -0.03428653, 0.053040706, -0.06520073, 0.13150351, -0.057557795, -0.036372088, -0.04379355, 0.03185017, -0.007756076, 0.034686323, -0.08044268, -0.012721952, 0.030574061},
{0.041043725, 0.10024311, 0.08068955, -0.060440075, 0.032247152, -0.00046739727, -0.07275301, -0.052999463, 0.05486916, -0.033919305, -0.0054753115, -0.12131172, -0.042683754, 0.0022723295, -0.04120381, 0.051605683, -0.07522601, 0.060590044, 0.065413766, -0.07479192, -0.00938501, 0.0067038015, 0.13137862, 0.022039656, 0.016861573, -0.08994827, -0.069457896, 0.023462895, 0.04350958, 0.052130233, -0.08580595, -0.028568255},
{0.082180895, -0.032757454, 0.046543077, -0.021314528, 0.046762284, 0.06628579, -0.016424084, 0.011542594, 0.07989995, -0.090248704, -0.084776126, -0.019873865, -0.0717055, -0.069126554, -0.059385784, 0.060492374, 0.030147351, -0.06329549, 0.03497958, 0.029695492, -0.025708966, -0.012850627, 0.10864147, -0.047443766, 0.0662334, -0.10061692, 0.057404555, -0.060976088, 0.07140337, -0.004916458, -0.06944748, -0.032684594},
{0.075428925, -0.043463327, 0.07227188, 0.059455104, 0.04318852, -0.051280472, -0.025520038, 0.0045227464, 0.023775525, -0.1332472, 0.025009183, 0.041784707, -0.0045989556, -0.06548906, 0.008678071, -0.073057204, 0.07310067, -0.037830442, 0.00023156541, -0.033517435, -0.03347769, 0.04353711, 0.10818714, -0.009400202, 0.0003879716, 0.050967854, 0.021737352, 0.0020837667, -0.024001826, 0.088704415, -0.060236163, -0.033854473},
{-0.016385995, -0.08532526, -0.0027626157, 0.04022843, 0.029397588, 0.015104048, 0.0022728578, -0.102301575, 0.063934326, -0.16501015, 0.072817236, -0.037978467, -0.08792902, 0.06197236, 0.05364677, -0.019537484, 0.048919663, 0.058691066, 0.058727, -0.023886008, -0.024914227, 0.07801819, 0.07195225, -0.056032132, 0.041342404, -0.12082843, -0.06702047, -0.06803524, -0.14479324, 0.015414083, 0.0065028835, -0.06458033},
{-0.14662889, -0.22428925, 0.050867915, 0.0122194085, -0.0691705, 0.022402517, -0.053627092, -0.022255445, 0.037669085, 0.0794884, 0.045713805, 0.0014571054, 0.051527344, -0.04519286, -0.080936074, 0.059055295, -0.031773496, -0.06408623, 0.01912472, -0.06802054, 0.008959181, -0.015730768, 0.157642, 0.0076024937, 0.0532051, 0.004580041, 0.046031356, 0.03341337, -0.15529864, 0.24309035, 0.0757395, 0.0038947728},
{-0.037929446, -0.038462885, 0.03817468, -0.033188827, -0.058787495, -0.07712353, -0.04562415, -0.053855322, 0.040531978, 0.039493665, 0.037728228, 0.08339763, -0.058300667, 0.06981661, 0.026104249, -0.007422284, -0.043285083, -0.044649206, -0.038047377, 0.036673743, 0.061549395, -0.07218077, 0.08410737, -0.011631858, 0.06520513, -0.025406376, -0.07153916, 0.03641795, 0.02121972, 0.085981525, 0.03250111, 0.026937585},
{-0.044729795, 0.063756876, 0.057345495, 0.035761014, -0.060341097, 0.037187062, 0.04206032, 0.1256612, 0.051378474, 0.040936474, 0.009953057, 0.009467374, -0.009028559, -0.07235546, -0.022257349, -0.06117079, -0.038980003, -0.048020743, -0.046282705, 0.017860485, -0.06595513, -0.0042545497, 0.002946382, -0.08436468, -0.0022448266, 0.058717877, 0.03833215, -0.004114996, 0.08709796, 0.04417999, 0.051498353, 0.042695865},
{0.050570894, 0.123033576, 0.058306918, 0.034010615, 0.030635295, 0.07980703, -0.08851253, -0.003779542, -0.055651974, -0.008754732, -0.0044432892, 0.022388197, -0.010391057, -0.030004054, -0.03558119, -0.09132002, -0.03480771, 0.04943749, 0.021775877, 0.03174367, -0.019823546, -0.06033806, -0.010696768, -0.017987425, 0.050691452, -0.010558542, -0.06716067, 0.018164948, 0.09641181, -0.020732954, -0.04988498, -0.11898349},
{0.009634039, 0.1179512, -0.05488068, -0.085436724, 0.0425718, -0.033013247, 0.051528253, -0.061434176, 0.035935074, -0.15557568, -0.014153332, 0.06908132, -0.0020163865, 0.066149786, 0.07988633, 0.04739162, 0.081988215, -0.04471593, 0.043603078, -0.06311081, -0.072282635, -0.084926754, 0.08467947, 0.040062804, -0.059743438, -0.04287691, -0.061549637, -0.035603713, 0.040074524, -0.14659733, 0.018408753, 0.037176915},
{0.16974875, 0.15160227, 0.02190324, -0.020561935, 0.00918342, -0.0056908056, -0.025752326, 0.024419531, 0.0014984235, -0.14235222, -0.029486606, 0.020668639, -0.028263232, -0.050533656, 0.017770562, -0.0748183, -0.008084647, -0.077088855, 0.053786732, 0.013738615, -0.06704669, -0.07502656, 0.028440421, 0.006231884, -0.069076836, -0.05552229, 0.01899557, -0.010518652, 0.13544765, -0.20347878, 0.038516123, -0.008271673},
{0.099471286, 0.23342746, -0.008432031, -0.0682417, 0.057490047, -0.020286731, 0.07387563, 0.086070366, 0.07525715, -0.024228679, -0.080588825, 0.13191664, -0.030948672, 0.050419956, -0.06425871, -0.021592364, -0.08647062, -0.06388579, -0.016604181, -0.027510636, -0.032064818, 0.024023667, 0.02915418, -0.044836536, 0.05337266, -0.04748941, 0.02392667, 0.06867007, 0.15522292, -0.14302813, 0.052259523, -0.101280555},
{0.1059723, 0.16785166, -0.07181545, 0.01590333, 0.0683341, 0.06324279, 0.021391163, -0.022184458, 0.072005, -0.14745013, 0.060970493, 0.017018924, -0.08214733, 0.077135496, 0.060402773, -0.044265673, 0.039924532, 0.036517423, -0.053785503, -0.059018306, 0.002850116, -0.031691775, 0.010017194, -0.027547844, -0.010657868, -0.04200018, 0.018861922, 0.013156255, 0.058605496, -0.15544406, 0.05035118, 0.025441514},
{0.19955151, 0.03280584, -0.020355202, 0.07550422, 0.04042574, 0.033422463, -0.028158212, -0.036628123, -0.04110417, -0.0029020517, -0.02474821, 0.05635564, -0.07044258, -0.07515746, -0.0440308, -0.05653378, 0.016557619, -0.053163227, 0.06778778, -0.019970255, 0.052595057, -0.01911956, 0.091873564, -0.0020546017, -0.02269003, -0.06405887, 0.027910335, 0.06120658, -0.0034497995, 0.019267775, 0.011296434, -0.07819506},
{0.09323166, 0.065043785, -0.06934492, -0.003496702, -0.026130682, 0.06589238, 0.06260914, -0.02638031, 0.016455933, -0.007291111, -0.024192013, 0.08714066, 0.06600195, 0.021298205, 0.033781596, -0.08722555, -0.057923548, -0.048852697, 0.013150702, -0.028342042, 0.054888703, 0.066465646, 0.03601537, 0.04557037, 0.028477326, -0.008498027, 0.0058048405, -0.037443973, -0.017739808, 0.021951184, 0.067304, 0.064634934},
{0.08495276, 0.060175594, 0.061796173, 0.08145675, 0.01679298, -0.07912666, -0.0011283363, 0.132368, 0.07778703, 0.114438646, -0.011905428, 0.15691237, 0.0033470413, 0.063336164, 0.011283297, -0.07846897, -0.085940145, -0.062961884, 0.05419331, -0.061649043, -0.00402305, 0.00067938864, -0.0073871147, -0.008242897, -0.0011894994, 0.08359493, 0.055026323, -0.05308312, 0.029237337, -0.060822558, -0.06407267, 0.048993185},
{0.081787884, 0.06607508, 0.06432599, -0.08816844, 0.0010128635, -0.07975123, 0.061882354, -0.052868724, -0.08086654, -0.020420868, -0.018898364, 0.07668584, 0.071131505, -0.07332324, 0.06322906, -0.015071363, 0.07954152, 0.021237114, 0.022867506, -0.010384704, 0.056040164, 0.020176105, 0.041887693, 0.06796903, 0.03128647, 0.017782956, -0.02656945, 0.05392408, 0.10588996, -0.05493879, 0.0075507294, -0.04100347},
{0.05598493, 0.025392978, 0.053436026, 0.023046391, 0.057456233, -0.030371234, 0.07958646, 0.049180847, 0.0814562, -0.123124056, -0.05444267, 0.02077334, -0.04647827, 0.061016195, -0.04549517, -0.034206815, -0.026828818, -0.032530915, 0.05054094, 0.04286837, 0.06505634, 0.0519446, -0.012257014, -0.02632474, -0.01435486, 0.014754761, 0.04936529, -0.012944145, 0.07362301, 0.017956741, -0.026171172, -0.106829226},
{-0.031718597, 0.04866399, -0.059893087, 0.025157703, -0.0059383577, 0.028666005, -0.023007635, -0.016725233, 0.04349397, -0.18003908, -0.026822591, 0.0069160373, -0.07016755, 0.040963594, 0.06833851, 0.018491797, -0.08270335, 0.039207485, -0.0062175496, 0.07886985, -0.03690005, -0.018224694, 0.15031594, -0.048246462, -0.052248247, -0.0367797, -0.07855568, -0.0917319, 0.03603661, -0.018185532, -0.010186656, -0.0060655335},
{0.05210688, 0.1927669, 0.08643347, -0.0007966524, -0.09242238, 0.045671985, -0.052812815, -0.08374313, -0.06773395, -0.1977632, -0.038739327, -0.113796405, 0.07795973, -0.009015496, 0.020445926, 0.004538543, 0.016851895, 0.028106714, -0.05343803, -0.010255781, -0.015193025, 4.1380525e-05, 0.17746788, 0.061782114, 0.021163344, -0.17065318, -0.00027187992, -0.08557276, -0.0065513845, -0.09193631, 0.011247161, -0.061273877},
{0.031503662, 0.123059906, 0.06834799, 0.03515979, 0.011744509, 0.05444625, -0.02699135, -0.10580793, 0.03187205, -0.16926092, 0.038898516, -0.16935264, -0.07636511, -0.048575614, 0.07940328, 0.009179967, -0.07132259, 0.07336219, 0.033197653, 0.022160282, 0.0009689014, 0.06182386, 0.24155429, 0.004629187, 0.04950347, -0.21857384, -0.051351953, -0.07050972, 0.06133209, -0.22221011, -0.012832956, -0.23489437},
{0.0009286879, 0.2665167, -0.026017118, -0.06436454, -0.090946056, -0.0074662343, -0.027223598, -0.1399692, 0.08204989, -0.27528748, 0.07326158, -0.25723872, -0.013151008, -0.06992667, -0.013977033, 0.03154763, -0.08299822, -0.06764434, 0.07582876, -0.036140453, 0.0123740425, -0.06052445, 0.2716435, -0.002881167, 0.04069615, -0.28752595, 0.030316278, 0.062147345, 0.09011837, -0.29262242, 0.07139984, -0.19417256},
{0.07239005, 0.27603573, -0.08175643, -0.048329614, -0.07219648, -0.019488454, 0.035291635, -0.040707573, -0.06984994, -0.119357295, -0.05547021, -0.26644176, 0.07035789, -0.053046968, -0.09144655, 0.0012709517, 0.031371176, -0.04405999, 0.0015684287, -0.050382253, -0.04131038, -0.02312874, 0.2501607, -0.05966691, -0.00025135154, -0.15078148, -0.033925608, 0.031037962, 0.100465074, -0.29628965, 0.049811825, -0.13200413},
{-0.0016058208, 0.16315846, 0.056151092, -0.019849533, -0.077624366, 0.051990077, -0.08874993, 0.027309371, -0.082711324, -0.14276819, 0.0077773784, -0.34489116, -0.061513215, 0.0075754044, -0.0686437, 0.06614788, 0.011109598, -0.028053526, -0.06280644, -0.046155956, -0.017399648, 0.017920077, 0.16522238, 0.0045422395, 0.027017213, -0.1286856, -0.02771392, -0.07399811, 0.07272383, -0.11792068, 0.017154116, -0.15721387},
{-0.11781597, 0.065887004, -0.056674507, 0.026220135, -0.0040585543, -0.015239432, -0.056290604, 0.013801383, -0.013667487, -0.08056687, -0.04221614, -0.3236305, 0.03240994, -0.016745193, 0.017948467, 0.021479597, -0.029905174, -0.07724887, -0.06020587, 0.053252347, -0.015762037, 0.026404053, 0.19095115, -0.06853735, -0.055573214, -0.18175885, 0.0024708118, -0.031649966, -0.07752703, -0.16902685, 0.07519827, -0.094276056},
{-0.028595872, 0.1537618, -0.04291617, 0.00711621, -0.072264925, -0.081846885, -0.048686504, -0.023916962, 0.009693287, -0.0480031, 0.02768726, -0.17577067, -0.04646193, -0.007964952, 0.025586605, -0.08128112, 0.01472225, 0.03438347, 0.007030292, 0.07261828, 0.02535052, 0.070308566, 0.118648484, 0.05413952, -0.07088798, -0.12439704, 0.011847309, -0.03989634, -0.085609354, -0.04779933, 0.04142793, -0.058533024},
{-0.13777965, 0.04604254, -0.06859879, -0.030292109, -0.049463805, 0.074207425, -0.06843369, -0.053798098, -0.02997969, -0.07836481, -0.0152546195, -0.20344275, -0.053796846, -0.00608036, -0.07306657, 0.013607993, 0.03613261, -0.067677684, 0.009213729, -0.055045683, 0.053832367, 0.0011638477, 0.10623426, 0.030187445, -0.040229384, -0.0689668, -0.040200904, 0.062004134, -0.08349567, -0.13346119, -0.04593023, -0.04942747},
{-0.1903108, 0.03603335, -0.027327996, 0.06686738, 0.07317603, 0.031790882, 0.07334878, -0.03342167, -0.026698966, 0.10891346, -0.070373856, -0.079173684, -0.043062057, -0.07758591, -0.08136566, -0.07582151, 0.044765636, 0.07373647, -0.04395841, 0.06535181, 0.06841149, -0.063524716, 0.072031476, -0.055042498, -0.004512966, -0.06826043, -0.045643166, -0.00036220232, -0.065568835, 0.0018508, 0.02365755, 0.01411772},
{-0.007337625, -0.030491706, -0.059660755, -0.012923263, 0.03709174, -0.027105827, -0.042844526, -0.028317096, -0.050210427, 0.13442509, 0.0628678, 0.065850705, -0.078474276, 0.017613266, -0.089253746, -0.03762815, 0.005590081, 0.062494, -0.047856864, -0.025980774, 0.027560405, 0.0787472, 0.037117105, 0.046314545, 0.014690971, 0.10838842, -0.068816826, 0.07759034, -0.13585438, -0.0065968586, -0.0023842829, 0.04127709},
{0.1359897, 0.027647177, -0.014795348, 0.035797205, -0.03665928, -0.01653041, 0.022711232, 0.023476083, 0.029791467, 0.13139313, -0.030019747, 0.029449368, 0.048849616, -0.0190437, 0.028488165, 0.014094667, -0.02506328, 0.029174125, 0.036177214, -0.028214378, 0.038892, -0.009916492, -0.040816326, 0.056501966, 0.050034363, 0.08592892, -0.082890056, -0.054383393, 0.003294793, 0.0051827845, 0.0455256, 0.097341545},
{0.07938419, 0.038549796, -0.052004505, -0.044563137, 0.06031334, 0.056432575, 0.0099977255, 0.009726778, 0.068329215, -0.016395716, 0.052677155, 0.1268318, -0.03957437, -0.05081564, -0.074477196, -0.08085767, 0.0032999888, -0.07103545, 0.014732878, 0.024959663, -0.0063604293, -0.046562318, 0.053868182, -0.05715681, 0.040702883, -0.020235145, 0.06389403, -0.02385855, -0.032480303, -0.050336245, -0.07183549, 0.02335489},
{0.17003107, 0.0707024, -0.06613749, 0.057662357, 0.06968898, 0.07372509, -0.023269685, -0.058348812, 0.017600618, -0.10073928, 0.053917635, 0.11099884, -0.07872725, 0.051610652, -0.08392158, 0.02509828, -0.023534179, 0.064724006, 0.04200425, -0.009905987, 0.013523946, -0.046319604, -0.00026009238, -0.008079768, 0.05109552, 0.01734266, 0.020755844, 0.05725115, -0.0013765997, -0.10451957, 0.0704652, -0.069123544},
{0.08709907, 0.017370852, -0.02932638, -0.06754227, -0.08986421, 0.035020463, 0.0063190255, 0.021170048, 0.03700999, -0.05787238, 0.0051098783, 0.023180092, 0.039685924, 0.0058067203, -0.029249288, 0.047728863, -0.05853065, 0.051876154, -0.0031579998, -0.015444024, -0.068919554, 0.021116517, 0.12451002, -0.09061735, -0.018428355, 0.028146863, 0.023148308, -0.004343791, -0.0037004023, -0.12202854, 0.042948697, 0.03422776},
{0.2552442, 0.1297149, 0.0785321, 0.06273418, -0.037549872, 0.04688306, -0.061613157, 0.08402223, -0.05107129, -0.15638214, -0.0705018, 0.116757676, -0.003730173, -0.042661384, 0.0472871, -0.0071282955, 0.06605837, 0.058599047, 0.040604368, -0.038063668, 0.062005628, 0.021069877, 0.024997814, -0.034580763, -0.09314315, 0.04667763, -0.035210613, -0.08580311, -2.712557e-06, -0.018768862, -0.06369776, 0.01989067},
{0.16996978, 0.1138867, 0.035855584, 0.03980576, 0.0073760175, -0.061607026, -0.0730377, -0.024639405, -0.04710816, -0.09044401, 0.08144833, 0.20404015, -0.013810592, 0.072481886, 0.055261724, -0.0012938242, 0.009473205, -0.05874028, 0.00075146847, 0.059222545, -0.017505212, -0.065835685, 0.07691518, -0.028042803, -0.07085987, 0.07047336, 0.03413311, 0.07831647, 0.0703135, -0.13266456, 0.02914512, 0.016540822},
{0.23461668, 0.09021095, -0.044854593, 0.0045652874, 0.059877973, -0.06152553, 0.011259076, -0.03239051, -0.084257334, -0.10816638, -0.049581908, 0.018751854, 0.04941501, -0.032443114, 0.024343165, -0.06739007, -0.010501459, -0.012274554, 0.015247622, 0.06878187, 0.024423549, -0.031046018, 0.11458372, -0.040973, -0.07925101, -0.014460105, 0.009094939, 0.04949385, 0.13675591, -0.1718738, 0.007519862, -0.055128764},
{0.058627587, 0.099827565, -0.06806037, -0.056373805, -0.051050883, 0.0034491494, 0.03249126, -0.03766602, -0.049176972, -0.09976547, -0.014571835, -0.11392594, 0.019696202, -0.051037304, -0.04384338, 0.026129402, -0.083275124, 0.0408903, 0.039055936, -0.008354411, -0.017846031, 0.017948695, 0.18701774, -0.026621185, -0.030913608, -0.1341323, 0.062531196, 0.07275442, -0.09819795, 0.00020818066, -0.012999809, -0.057744514},
{-0.0065128678, -0.0013333826, 0.019424796, 0.061040152, 0.02343289, 0.07442105, 0.07791243, 0.034365125, 0.0076064095, -0.10519248, -0.022120828, 0.0003365866, -0.002392028, -0.035291754, 0.0754686, 0.010727093, -0.012552284, -0.07444193, 0.04342969, 0.0331075, 0.034095593, 0.018548697, -0.033638578, 0.036484666, 0.044406287, 0.054169025, -0.0015008654, -0.0074201445, 0.08040014, 0.048935197, -0.023045825, 0.08859514},
{0.012738332, -0.0034647735, -0.03208662, 0.019992054, -0.05925916, -0.07711275, 0.06363509, 0.097597376, -0.021327212, -0.14648841, 0.083196886, -0.09375586, -0.06888716, 0.022587836, -0.033385586, -0.05879794, 0.08608012, -0.059986573, -0.052350547, 0.05280671, -0.06911325, 0.07966709, -0.031554557, 0.07828676, 0.07174566, -0.026356142, -0.0659295, -0.053210016, 0.10117448, 0.0932059, -0.0026906028, -0.033254825},
{0.07605742, 0.16007784, -0.03768806, 0.0013272817, 0.067240246, 0.05629754, 0.07091694, 0.13296054, -0.025862694, -0.061449155, -0.07741963, -0.030495789, 0.044811416, 0.062001165, 0.07858496, -0.08628864, -0.029111974, -0.08632806, -0.08374673, 0.051155776, 0.06193277, 0.048081636, -0.079701, -0.07727188, -0.024180898, -0.009576923, -0.050103948, -0.029769367, 0.08429734, -0.03547144, -0.018499156, 0.025326997},
{-0.03440603, 0.08245444, -0.07827359, -0.075417146, 0.055970334, -0.056343608, 0.03179686, 0.06911922, -0.045835953, -0.036224764, 0.045525078, 0.11867299, -0.06151987, 0.057946328, -0.09226665, 0.07794917, 0.053336114, 0.054643355, -0.05587057, -0.07420707, 0.021835776, -0.006635867, 0.053535182, -0.08423432, -0.020066716, -0.02007002, -0.0243476, 0.052360166, 0.10647562, -0.07088483, -0.047132757, -0.073766895},
{0.045363206, 0.08828305, -0.0125808865, -0.024990905, -0.04082066, -0.03298161, -0.047982134, 0.03568472, -0.07724079, -0.11083642, 0.0666998, -0.05742373, 0.050226133, 0.05262487, -0.05720575, 0.02678779, 0.052302793, 0.061295647, 0.04912699, 0.028897462, -0.08600112, -0.07537717, 0.14601567, -0.059171475, 0.026518187, 0.062466286, 0.046253394, -0.054829992, -0.06384524, -0.012433179, 0.023604294, 0.0059885876},
{0.212451, 0.06192971, -0.08016212, -0.01572292, -0.09325519, 0.07503678, 0.07631506, 0.014273017, -0.07071349, -0.048615053, 0.008175293, 0.002874947, -0.037144314, -0.011844026, -0.0067216614, 0.02975442, -0.069941886, -0.02516481, 0.03861979, -0.004777955, -0.056292918, -0.06337145, -0.02727373, -0.077710025, 0.04982064, 0.070329405, -0.04936565, -0.07533509, 0.036057033, -0.10809257, 0.06844105, -0.026311465},
{0.07977797, 0.14391243, 0.013704285, -0.087382816, 0.01489891, -0.0125774965, 0.020595267, 0.12747581, -0.06795829, 0.058130376, -0.033263713, 0.13902229, 0.017085096, -0.06273471, 0.06708149, -0.07059388, -0.005747132, -0.035112303, -0.0030151943, -0.022219421, 0.056679204, 0.013697632, -0.051784877, -0.044871286, 0.0776351, -0.0038181753, -0.00025219447, 0.035848495, 0.026411844, -0.13261952, 0.03131716, -0.028207507},
{0.18147476, 0.02807977, 0.072777525, -0.04635493, -0.04454939, 0.04513003, -0.042753138, 0.092210576, 0.03677956, -0.085630745, 0.016786296, 0.121993035, -0.028734354, -0.02937512, 0.057248175, 0.07746254, -0.023100719, 0.05478673, -0.059581082, 0.03310191, 0.03459608, 0.041859195, 0.069037504, -0.08100218, 0.01460667, 0.030912226, 0.07824372, -0.046886105, 0.09737615, -0.08849907, -0.031260744, -0.015037378},
{0.106320366, 0.09478968, -0.004453182, 0.052774962, 0.012754036, -0.023048952, -0.09057494, 0.060811363, -0.065900765, -0.09471156, -0.001020373, 0.051336676, -0.023244428, -0.070545755, 0.04479087, 0.03939092, -0.06358998, -0.08842602, 0.013203344, 0.049052645, -0.0089803105, -0.017261334, 0.13584611, 0.04750241, 0.04984889, -0.08833979, 0.02024506, 0.019763047, -0.016904648, -0.078048326, -0.049413286, 0.03000872},
{0.035689786, 0.06563302, 0.0060227364, -0.029728552, 0.06445421, -0.040616825, -0.023076603, -0.13909407, -0.0074653625, -0.07827264, 0.068687156, 0.01918053, -0.023955233, 0.031514995, -0.04840748, 0.006394206, 0.044090644, -0.038659856, 0.023815347, 0.027375955, -0.016579602, 0.08078413, 0.14976224, 0.04587674, 0.047893465, -0.09850862, -0.03380484, -0.08435081, -0.09039739, 0.06266932, -0.008846822, -0.027390374},
{-0.06402603, -0.023629684, -0.030379016, -0.08918614, -0.04765559, 0.04870422, 0.07256959, -0.1430242, -0.046829272, -0.07007582, -0.0575741, 0.093590684, 0.032961722, 0.06736801, 0.021714762, -0.02333231, 0.07770866, 0.026810773, -0.09208573, 0.01483439, -0.08242304, 0.043347523, 0.047042515, 0.019617619, -0.09038132, -0.14757426, -0.009947553, 0.04753108, -0.050744936, -0.019336427, 0.054658346, 0.036456443},
{-0.12896849, -0.09053865, -0.08288604, -0.08036688, 0.019426344, -0.02728606, -0.02695856, -0.044873416, 0.06346884, -0.012945948, 0.010300363, -0.05385074, -0.0020583896, -0.07696902, 0.017467778, -0.056228478, 0.010844521, -0.023741927, -0.089094184, 0.040110826, -0.047777895, 0.045469508, 0.18350361, 0.06086599, 0.029868588, -0.0804777, -0.06972493, 0.04721213, -0.1246689, 0.04323602, -0.052362587, 0.014239475},
{-0.15689822, 0.013298528, -0.039302025, -0.059246805, 0.0074196686, -0.012770966, -0.07613623, -0.12567274, -0.06447354, -0.023596082, -0.0031491637, -0.11101392, 0.012347077, 0.056386642, -0.0776342, 0.025818603, 0.049918726, 0.04021017, -0.06168099, 0.05830882, 0.06542313, 0.059696972, 0.16389108, 0.07872348, -0.0898698, -0.11646638, 0.00627484, 0.02993397, -0.14591591, 0.005066872, -0.056117326, -0.1035889},
{-0.15913005, 0.035979707, -0.07668995, 0.02332883, 0.072184086, 0.011675239, 0.048197243, -0.120229855, -0.07542941, -0.16586646, -0.055278026, -0.1766549, -0.0071441894, 0.044456385, -0.009876126, -0.014951156, 0.018703222, 0.015756136, -0.03190219, -0.084597416, 0.062625445, 0.028283156, 0.11117917, 0.0055750376, 0.023523781, -0.13364159, 0.05597041, -0.048223, -0.13031654, -0.024245327, 0.027329423, -0.10017995},
{-0.16002189, 0.1194253, 0.055502385, -0.0568449, 0.07121027, -0.021621235, -0.06344831, -0.16270931, -0.04706515, -0.13374738, 0.040102124, -0.17843392, -0.047554158, 0.0412165, -0.030158136, 0.06452801, -0.07291849, -0.014399051, -0.08087636, -0.0800739, 0.034711473, -0.041534018, 0.25609437, -0.030020406, 0.03718283, -0.11350245, 0.019835457, -0.07840504, -0.070413046, -0.021046206, 0.013362483, -0.09959556},
{-0.10252317, 0.1642276, -0.07229972, -0.048299253, -0.043010265, 0.0633301, -0.07459762, -0.06164041, 0.0812408, -0.040538486, 0.050945845, -0.24786948, -0.044264127, 0.01716805, -0.03039284, 0.075281434, 0.010789186, -0.08775489, -0.047367096, -0.087695666, 0.03151986, 0.025209978, 0.25341728, -0.018465744, 0.016351428, -0.121853605, -0.041037735, -0.072571404, -0.16891828, -0.04473095, 0.06650431, -0.08433127},
{-0.13548115, -0.011566019, 0.023074187, -0.02018234, 0.022650044, -0.053454153, -0.0051302393, -0.064740255, 0.04646577, -0.047444813, 0.027745198, -0.33598113, -0.073739946, -0.027216597, 0.057027597, -0.049764667, 0.019490786, 0.025283348, -0.04688715, 0.07685502, 0.021063797, 0.045880497, 0.15170383, -0.010529829, 0.05528782, -0.13626099, -0.036671523, -0.002849441, -0.05923871, -0.07437691, -0.026639441, -0.10595301},
{-0.11391284, 0.051752258, -0.0038807467, 0.045903243, 0.008740935, 0.012960903, -0.058547426, -0.13333265, -0.059127737, -0.08572847, 0.0598161, -0.355835, 0.00070346287, 0.062921, -0.060931947, -0.05463875, -0.03140157, -0.037352044, 0.055086374, 0.06800065, 0.049944624, 0.06416607, 0.28592247, -0.05947352, -0.0904858, -0.22463031, -0.0047236667, -0.01710425, -0.14293195, -0.06924289, 0.035340063, -0.15937507},
{-0.16598023, 0.048103485, 0.009505168, -0.047390904, -0.020287784, -0.039758317, -0.049891558, -0.22228128, -0.03450599, -0.07673524, 0.05239585, -0.28621098, 0.056582574, 0.036295153, -0.08307597, -0.04072851, -0.079513974, -0.06639694, -0.034444127, 0.053979564, 0.030575259, -0.06641545, 0.28062525, -0.08503879, -0.021977236, -0.18024527, -0.018696763, -0.006049954, -0.062739864, -0.086469844, 0.032846257, -0.11700773},
{-0.3279764, -0.0969103, 0.05586946, -0.04110659, 0.025615834, -0.0063605756, 0.017114963, -0.16773918, 0.065442964, -0.033505764, 0.059857216, -0.24720159, -0.063831195, 0.01734282, -0.05792462, -0.05600165, -0.039777026, 0.011688627, -0.07232629, -0.06495711, 0.024028596, -0.07542442, 0.10665446, -0.02844224, -0.03309664, -0.24080245, 0.07432902, -0.017336855, -0.16679193, -0.09139827, 0.019459, -0.17662583},
{-0.19367555, 0.029395837, 0.08394931, -0.049627583, -0.042157885, 0.01801353, -0.07583454, -0.036339868, 0.054240584, -0.076561786, 0.03646634, -0.24052328, -0.061172146, -0.07555706, 0.035777, 0.052170638, -0.0749279, 0.0345408, 0.012474404, -0.022776145, 0.0038502805, -0.08411904, 0.21553928, -0.004247397, -0.030474557, -0.19442388, 0.07758266, -0.010430488, -0.06413241, -0.016666446, -0.08703326, -0.13119863},
{-0.14704393, 0.022411449, -0.026173566, -0.08408557, 0.0052676513, -0.0032250807, -0.034250107, -0.143883, -0.011474252, -0.1074332, -0.08154366, -0.0939092, -0.02478662, 0.06564732, 0.07722392, -0.084709495, -0.08639759, -0.03440325, -0.059699014, -0.027022287, -0.07940799, 0.0075768456, 0.18591443, -0.00077074545, 0.03344685, -0.102601096, -0.06077748, 0.037365332, -0.02139484, -0.04610716, 0.028262235, -0.063110836},
{-0.10956206, -0.07220939, 0.03951086, -0.02004962, -0.016563585, 0.011347681, 0.046614677, -0.16009374, -0.042977203, -0.10630226, -0.02820621, -0.18053815, -0.0181319, 0.071479194, -0.009543074, 0.05267426, 0.024241008, 0.05770688, -0.05107746, 0.062185545, 0.00043289553, 0.03336805, 0.24581532, 0.06162906, 0.05387346, -0.17813437, -0.056665268, 0.040007707, -0.21477392, 0.083309755, -0.053602904, -0.093042076},
{-0.04471022, -0.023550883, 0.02886501, 0.04975482, -0.08825987, 0.034882, -0.04786071, -0.21474259, -0.05257756, -0.012333518, 0.062105116, -0.07878697, -0.08749743, 0.023921262, 0.06557129, -0.05250164, -0.052992225, -0.06595852, -0.056590643, -0.022003049, 0.054638207, -0.045082998, 0.25003687, -0.07427226, -0.03375064, -0.14191797, 0.01077326, -0.016339393, -0.28914723, -0.069619544, -0.053010073, -0.11160285},
{-0.07095133, -0.063805066, 0.020548873, 0.008032041, -0.004290048, -0.04427419, -0.04370815, -0.16469689, -0.010632239, 0.03027344, -0.023244882, -0.027336473, -0.025451863, -0.043216642, -0.009558217, 0.020548882, -0.06670008, -0.022036951, 0.054392345, 0.07555983, -0.0002413712, -0.013103396, 0.15495594, 0.044918377, -0.025890214, -0.16099283, -0.028608328, 0.03270235, -0.16985326, -0.07825946, -0.018242225, -0.07874603},
{0.027998764, -0.0023767191, 0.06575233, 0.059801403, 0.04079777, 0.035800427, 0.07041797, -0.035372727, 0.01426255, 0.03905279, -0.059716824, -0.12904426, -0.02980123, 0.06497991, -0.03863367, -0.03609674, 0.08269407, -0.05800169, 0.057968184, 0.054746468, -0.067093, 0.0014113933, 0.1279179, 0.04629716, 0.026953515, -0.11564021, -0.08402361, -0.068532124, -0.20116715, 0.087716386, -0.070384756, -0.057552494},
{0.033507723, -0.033928316, 0.02256871, -0.08586339, 0.021059738, -0.054001443, 0.030254347, -0.0567768, -0.06834989, -0.005654889, 0.015216263, 0.02511894, 0.029149545, -0.033328526, 0.04589227, -0.07660939, -0.014672928, -0.07454178, 0.015022347, -0.04980513, -0.040190995, 0.031162538, -0.013118463, 0.06319969, -0.07507456, -0.040193107, -0.020702828, 0.014100758, -0.0052815136, -0.020340284, -0.077572115, 0.07862687},
{0.025284583, -0.037934676, 0.022611596, -0.079755515, 0.016329214, 0.06163372, -0.0033225005, 0.027754314, 0.025497496, -0.05182454, 0.0135540925, 0.02505485, -0.055890527, -0.053654548, 0.065608405, -0.03229911, 0.020291403, 0.04460886, -0.088023864, 0.06130312, -0.037129078, 0.08345641, 0.08926946, -0.024441203, 0.027142214, 0.026773095, 0.043957982, -0.08128202, -0.04589769, 0.01461714, -0.039648462, 0.02456988},
{0.18070178, 0.031411216, 0.033437103, 0.04024694, -0.082160905, 0.08199172, 0.011139283, -0.056729876, 0.04354456, -0.12792277, -0.024798777, -0.021542959, -0.05227419, 0.04144428, 0.0162766, -0.060958743, -0.038029943, -0.00991581, -0.040886354, 0.057330254, -0.0046390975, 0.08283962, 0.058180943, -0.07935125, -0.064417, -0.08404299, -0.084318176, 0.04966832, 0.016127216, -0.15364023, -0.08204727, -0.06860076},
{0.17176919, 0.14794184, -0.073482335, -0.09149177, -0.03575465, -0.05585401, -0.079010144, 0.016734986, -0.07816622, -0.031335413, -0.07667305, 0.19609396, 0.05971958, -0.023590878, -0.04272992, 0.060526006, -0.07775857, 0.034411937, -0.089291535, -0.06478788, -0.05535275, 0.0039352328, 0.058686968, 0.045375556, 0.0045376034, 0.037753616, 0.06899743, -0.08423648, 0.11001388, -0.14720416, 0.032272782, 0.07778777},
{0.19771992, 0.10829156, 0.057199374, -0.04328891, 0.0019794533, 0.063560754, -0.04545317, 0.035534453, -0.030702278, -0.016287046, -0.07130218, 0.19415112, 0.06139257, 0.050054982, 0.0068567162, -0.08108027, 0.048821107, 0.0619903, 0.05600499, -0.05301133, -0.013010583, 0.03489726, 0.014174878, -0.059697334, 0.07222911, 0.03412422, -0.022635614, 0.004024537, -0.03310025, -0.062199637, -0.011026604, 0.026139913},
{0.05769475, 0.005222058, -0.07441181, -0.0043316428, 0.029431071, -0.04553863, 0.062402327, -0.049031503, -0.022497416, -0.05072106, -0.03254128, 0.027833084, 0.073485024, -0.07092511, 0.01899805, 0.05712855, 0.022530846, -0.006707334, -0.02243014, 0.06093102, 0.04680603, 0.031003714, 0.11607253, 0.07710937, -0.07936151, -0.05526317, -0.018256675, -0.010729705, 0.029332867, 0.019430999, -0.0437771, -0.04607419},
{-0.082510784, 0.039730992, 0.042662963, 0.064933896, 0.0113694165, -0.039872315, -0.078042686, 0.08848813, 0.055371687, -0.1435941, 0.06727339, -0.061198533, -0.042945225, 0.015663225, 0.0062808385, -0.00060488837, -0.05202044, 0.0633768, 0.05580086, 0.011877643, -0.027871916, -0.054746944, 0.10880326, 0.012989558, -0.06937273, 0.062055275, 0.0010592561, -0.061311487, -0.0066021387, 0.087302744, -0.03523866, 0.031434793},
{-0.06358456, 0.10603804, -0.05090101, -0.06396364, -0.0062684, 0.02243828, -0.004923817, 0.0062786527, 0.03492575, -0.14683078, 0.025538553, 0.048070997, 0.030279873, -0.009540692, 0.018993702, -0.044413168, -0.056545954, -0.06673787, -0.011283637, -0.09004861, -0.07173416, 0.06925446, 0.012845494, -0.08779294, -0.06907222, -0.013674027, -0.02486507, -0.07973732, 0.03250842, -0.036637213, 0.010239024, -0.05515985},
{0.0823614, 0.00733109, 0.017442785, -0.018069623, -0.09422392, -0.014279239, 0.07625241, 0.055307284, -0.014487863, 0.08101683, -0.055771846, -0.089598455, -0.005465455, -0.05584119, 0.062348567, 0.04446124, 0.019178368, 0.047819577, 0.057310104, -0.088784374, -0.09124073, 0.07257487, -0.097811334, 0.018587606, -0.028034225, 0.01400746, 0.04085532, -0.06172161, 0.100793935, -0.05683834, -0.046050157, 0.0030896927},
{0.035387687, -0.01921731, 0.043795392, -0.0024297957, -0.058587365, -0.03972813, -0.038527876, 0.05595836, -0.01266174, -0.0040529333, -0.002968974, -0.013360271, -0.052128963, -0.06619357, 0.053942744, -0.008262415, 0.008513339, 0.053725533, -0.0077866493, -0.030240549, -0.05504489, 0.083070904, -0.01120588, -0.09002872, -0.051135905, 0.009575177, -0.07613595, -0.023898724, -0.030040815, -0.01956019, 0.05887736, -0.018297274},
{0.056359123, 0.0069389055, -0.085080996, 0.076501235, -0.07948512, 0.08157149, -0.028752387, 0.005906522, -0.0758033, -0.026393807, 0.034321263, 0.016729388, -0.064626634, 0.06291897, -0.04863957, -0.023225164, -0.043842092, 0.051651973, -0.011788822, -0.03964791, -0.025704319, -0.05986548, 0.119021386, 0.030766308, -0.03880892, -0.04341747, 0.03458583, -0.058793522, -0.015871467, 0.03192577, -0.015590743, -0.018077541},
{0.08899363, 0.040305857, -0.028292347, -0.07238871, -0.07737499, -0.08456738, -0.00725813, 0.06704237, -0.034247335, 0.06848312, 0.012460576, 0.12955436, -0.08700536, -0.06921811, -0.016691038, 0.057242736, -0.0693564, -0.031948004, 0.0027311507, -0.008387907, 0.06082492, 0.04527147, -0.06329327, -0.026218476, -0.074818715, 0.010961287, -0.000116442345, -0.0059696566, 0.044585194, 0.033717185, -0.085994825, 0.057856288},
{0.20090343, 0.0026926764, -0.005827531, -0.027694521, 0.047498688, 0.0069494247, 0.0030195783, 0.07846746, -0.0008733347, -0.04798155, -0.03605787, 0.1631124, -0.07311949, 0.05976243, 0.037035275, -0.009158988, -0.04777291, 0.07286969, 0.022821594, -0.05581803, -0.006257705, -0.07076133, 0.08176245, 0.049083363, 0.020976398, 0.011817708, 0.03167137, -0.0573378, -0.026459383, -0.14219867, 0.02912929, 0.051208995},
{0.016465912, 0.05380883, 0.043076083, 0.08022432, -0.058097195, -0.034560207, 0.075803466, 0.0110453665, 0.08260022, -0.073374555, 0.044873238, 0.0940253, 0.023097364, -0.091806255, 0.033692684, 0.01508209, 0.08051801, 0.018224493, 0.038126748, 0.062626995, 0.007998178, 0.02396065, 0.030666325, 0.046999782, 0.007924824, -0.14544179, -0.01578415, 0.004692407, -0.044067565, -0.01109317, 0.018720118, 0.020697847},
{0.052148823, -0.094171725, 0.02487623, -0.0037918077, 0.0026833748, -0.08149635, -0.041851416, -0.106690705, 0.023969531, -0.07010953, 0.045307774, -0.019084573, -0.064911, -0.060066987, 0.04791425, -0.011551641, -0.054121323, -0.03806751, 0.054889027, -0.032505732, -0.05753566, 0.056532845, 0.13021329, 0.052805882, -0.006502924, -0.14073403, 0.038768437, 0.056686234, -0.13567145, 0.015838357, -0.076857306, 0.034920454},
{-0.10285291, -0.026773361, -0.080077216, -0.021251354, 0.07535599, -0.04513827, 0.0073438007, -0.119462, 0.041833878, -0.12405892, -0.074473165, -0.12301433, 0.07552187, -0.08273811, 0.048089866, -0.08546725, -0.019891083, -0.01940604, -0.06785004, -0.009147658, 0.005695596, -0.025966015, 0.10030126, -0.07013692, -0.05843003, -0.010273759, -0.058968827, -0.07509292, -0.10345076, 0.08666231, 0.053585973, -0.069320865},
{-0.03540231, -0.08173126, 0.0026755407, 0.0150723765, -0.084789194, -0.01555419, -0.03009994, -0.073330835, 0.08395596, 0.0037025136, 0.03398664, -0.0555042, -0.030009976, 0.03441444, -0.039615642, 0.06350218, 0.039013386, 0.015439663, -0.09126685, -0.00911217, -0.0897783, -0.042326454, 0.13549735, -0.04149741, -0.0051714065, 0.03936496, -0.046788536, -0.052256793, -0.113557614, 0.09120642, -0.06485908, -0.02846828},
{-0.034677517, -0.11402911, -0.01675786, -0.07342448, -0.057592634, -0.024945255, 0.056786187, -0.13220744, 0.054602534, -0.016853008, 0.010828852, 0.085155845, 0.069087796, -0.056618623, -0.07112854, 0.057740755, 0.06211777, -0.06324756, 0.021692427, -0.07748093, 0.0031096512, 0.06510304, 0.051583953, 0.06887306, -0.0618279, 0.07103146, 0.07889257, -0.0710326, -0.11822936, 0.10102682, -0.043545123, -0.012184528},
{-0.15401608, -0.110135734, -0.0067674145, 0.08054894, 0.009187796, 0.046883404, 0.0003246802, -0.022845712, -0.08248069, 0.042716913, 0.014238998, -0.055536944, 0.041797534, -0.020341942, -0.08374708, -0.009490992, -0.021818087, 0.07676025, 0.0020667228, 0.06162843, 0.021245673, -0.056939293, 0.04373456, 0.009746235, -0.02083413, 0.09309011, 0.07627394, -0.049312145, -0.11780287, 0.23382843, 0.00667708, 0.048092455},
{-0.22337748, -0.15486377, 0.08150001, 0.082185, -0.021075822, 0.05059454, 0.06903607, -0.013870934, -0.07416993, 0.026674658, -0.07819489, -0.030379947, -0.055170607, 0.055495087, 0.059250772, 0.022403896, -0.07159551, -0.08914557, -0.05020966, 0.0018194141, 0.002630071, -0.08110116, 0.09964977, 0.04921923, -0.038401898, 0.065795995, -0.057858735, -0.014412827, -0.07646638, 0.14776734, -0.08278514, 0.054654665},
{-0.2092421, -0.18864587, -0.05729057, -0.03790208, 0.030296199, 0.06392662, -0.038505703, -0.1116538, -0.056327417, 0.18943727, 0.07951651, -0.11849431, 0.025336137, -0.0665661, 0.07975428, -0.05213023, 0.054578364, 0.066939026, -0.06598071, -0.016414776, 0.056682948, -0.08113318, 0.059022143, -0.0023068571, 0.005495833, 0.10586028, -0.01622406, 0.017408293, -0.12898804, 0.13390617, -0.045761723, 0.023977349},
{-0.26822904, -0.22327012, -0.01954338, 0.056319106, 0.03159805, -0.015810363, 0.041106265, -0.07222558, 0.050462246, 0.05251397, -0.032736883, -0.17362526, 0.060509462, -0.07908013, 0.011094068, 0.06018962, 0.07772997, -0.058795016, -0.04293671, 0.018653851, -0.041496437, -0.008325674, -0.01914993, -0.053749744, 0.07717016, 0.070744276, -0.026318239, -0.045580115, -0.095214665, 0.19054788, 0.058372486, 0.15541054},
{-0.2894244, -0.13624203, -0.021502532, -0.013655199, -0.0032636863, -0.0362987, 0.026858175, -0.080292866, 0.011290237, 0.15085204, -0.016927646, -0.2514595, 0.020426735, -0.00031451945, -0.033859864, 0.060554415, 0.002041705, -0.032743186, 0.0720924, 0.012171162, -0.014102151, 0.037086964, 0.20177534, -0.069303446, -0.073681146, -0.027768873, 0.056237277, -0.017623115, -0.26130733, 0.08613592, -0.062529996, -0.0058105695},
{-0.41332987, -0.2580238, 0.0006734431, -0.038456585, 0.050320346, -0.04680633, 0.0353566, -0.16985573, 0.07898292, 0.08709621, -0.06293457, -0.20909396, 0.020114979, -0.063115865, 0.02644006, -0.008393138, -0.03650817, -0.008842314, 0.006810519, -0.0009603704, -0.04890962, -0.048720866, 0.20041227, -0.03779019, 0.072730646, -0.1993959, -0.028856546, 0.011763122, -0.15225236, 0.20552517, 0.041059773, -0.026875824},
{-0.38600314, -0.19088858, 0.03742084, -0.054583747, -0.0043790257, -0.0016856343, -0.021123268, -0.17704494, 0.05957474, 0.08857583, 0.008809536, -0.19584396, -0.06679031, -0.06482447, 0.014439324, 0.06614078, -0.013970412, -0.08855907, -0.05383632, -0.068267666, 0.052708015, -0.027493715, 0.060256373, -0.021378215, 0.014068412, -0.022059364, -0.04520135, 0.07620488, -0.2133415, 0.12903473, -0.03488874, -0.029583035},
{-0.3178792, -0.12695913, 0.02946449, -0.047255147, -0.076855436, 0.05551298, 0.05871244, -0.0447511, -0.0330972, 0.08135628, -0.050841004, -0.2433936, 0.07265707, -0.056075886, 0.06090992, 0.026129944, 0.07680529, -0.001255091, -0.06391359, -0.05802185, -0.054637015, 0.004488945, 0.16621798, 0.020461095, -0.084324956, -0.08708688, -0.058759857, -0.02466414, -0.16652147, 0.20434254, -0.08531862, 0.09347701},
{-0.23420599, -0.24219935, -0.063408494, -0.0519483, 0.016414206, 0.0847211, 0.04317826, 0.014994043, 0.0834405, 0.13664499, -0.082160436, -0.30278906, -0.05160166, 0.020133061, -0.03152851, 0.02704251, 0.014137119, -0.09093352, 0.067860335, -0.019414246, 0.0710388, 0.038543478, 0.09006385, -0.022105621, -0.041086003, 0.017892987, -0.059502516, -0.08459304, -0.14926001, 0.16085215, 0.001703996, 0.13898645},
{-0.13720934, -0.26581308, 0.0016294941, -0.05514083, -0.0018086777, -0.056841776, -0.006550735, 0.055447467, -0.056542527, 0.2227963, -0.0780689, -0.10838084, -0.03695614, -0.044636186, -0.08317731, -0.092149965, -0.06019138, -0.06812422, 0.022714099, -0.00092606206, 0.0036259154, -0.018338747, -0.049389295, -0.08455316, -0.08672332, 0.107684016, -0.008100245, -0.05069275, -0.032152314, 0.17384546, 0.05654645, 0.0517817},
{-0.17780511, -0.1499913, 0.08075391, 0.07220559, -0.09003081, 0.032466643, -0.029962244, -0.07921111, 0.04670942, 0.015410707, 0.04453465, -0.06345163, -0.07441842, -0.046634294, -0.07571326, 0.07906338, 0.008912295, -0.046204712, -0.06115948, -0.059014313, 0.063989736, -0.08324162, 0.029494952, 0.04144265, -0.029994885, 0.099905215, -0.07373349, 0.028268833, -0.026480075, 0.1913281, -0.08301485, 0.14390728},
{-0.09645199, -0.09126617, -0.03261739, -0.0579925, 0.043784395, -0.013437614, -0.0720807, -0.10420014, 0.057107076, 0.109258555, -0.062124833, -0.10308148, 0.0744543, -0.0657424, 0.020947622, -0.06310652, -0.029237967, 0.07630844, 0.067107104, -0.0705767, -0.025954956, 0.08182606, 0.098683596, 0.058887076, -0.07980108, 0.04154648, -0.04441817, -0.050879337, -0.19250177, 0.16837126, -0.053273197, 0.08513921},
{-0.034618124, -0.013196451, 0.06359106, -0.0015691572, 0.04594395, -0.028211985, 0.023472726, -0.10067421, -0.03809067, 0.06781703, -0.06114176, -0.075859465, 0.023276279, -0.023456955, -0.027438585, -0.009858646, 0.050039947, 0.010705756, -0.050877973, -0.02257958, -0.06873376, 0.08333573, 0.034808025, -0.085633956, 0.07390884, -0.10196456, -0.08235816, -0.084520385, -0.14792646, 0.13982025, -0.076930426, -0.012062287},
{-0.03920462, -0.049311638, 0.05347608, 0.07999121, 0.052738752, -0.07078689, -0.01539519, -0.13828447, -0.011961415, 0.13716431, -0.087432764, -0.05983183, -0.047916863, -0.007851556, -0.00553918, 0.07719535, 0.07663524, -0.06515956, -0.022198394, 0.024539435, -0.030905789, -0.062904336, 0.035157613, 0.049461126, -0.08681522, -0.014537241, 0.060876913, -0.050042987, -0.14858614, 0.009932774, -0.09014707, -0.014575539},
{-0.060364667, -0.048752263, 0.079501584, -0.076686665, 0.02653623, 0.085735425, 0.03836093, -0.09344788, 0.016598962, 0.06796212, -0.028841095, 0.045107767, -0.054027095, -0.07601806, -0.01848348, 0.06300359, -0.013743117, -0.080665536, -0.08336637, -0.04140057, -0.08623542, -0.08313192, 0.068847, 0.072612226, 0.0045462637, -0.02929307, -0.07239095, -0.03957762, -0.061253652, 0.108155645, -0.05521687, -0.0035340232},
{0.04482929, -0.030375546, 0.031001687, -0.08379879, 0.0182129, -0.017920844, 0.002943009, 0.048159428, -0.05652564, -0.012245919, -0.046109527, -0.0159513, -0.044811375, 0.028155085, -0.04975719, -0.036883127, 0.057639316, -0.046703357, -0.0032831158, 0.051798496, 0.04956278, -0.01939591, -0.046254314, -0.0039031615, 0.04210881, -0.037541814, -0.054189194, 0.03545732, -0.08720861, -0.018532291, 0.030197263, -0.033309493},
{0.08990638, -0.056885026, 0.032070823, -0.051645275, 0.030588781, 0.05021757, 0.07762651, 0.031641874, -0.07115927, 0.028563555, 0.0154803, -0.06975784, 0.07319533, 0.028124487, -0.055110626, -0.077162065, -0.024339043, 0.06721185, -0.0127477525, 0.0039989734, -0.024773037, 0.085714504, 0.13139096, -0.016402932, -0.055622887, -0.08522227, 0.03665598, -0.04932915, 0.048764408, -0.06778698, 0.06172083, -0.074988395},
{0.07840123, -0.012568367, 0.06324585, 0.025908511, 0.06891786, 0.015331358, 0.047758676, 0.04230795, -0.072607085, -0.053468958, 0.049647585, 0.154728, 0.03896028, -0.014999056, -0.012575773, 0.05152243, 0.022015296, 0.08051147, -0.038316023, -0.015049209, 0.045586377, 0.008699559, 0.060518544, 0.068727545, -0.046553295, -0.055944793, 0.035194702, 0.06453404, 0.1289567, -0.13562031, -0.0013635339, 0.034284227},
{0.20546386, 0.13037765, 0.012408353, 0.072039984, 0.031556923, -0.08207515, 0.027884886, -0.02149872, 0.08335441, -0.015448397, 0.051573988, 0.06880787, -0.01394219, -0.058079805, -0.021994485, 0.07230158, 0.038173795, -0.003498259, -0.07565268, -0.05927713, 0.04203312, -0.0058950707, 0.009470411, -0.067782864, -0.081049554, -0.0500274, -0.03244776, 0.074425615, 0.09663386, -0.1603061, -0.0606803, -0.07185996},
{0.1090723, 0.0021235733, -0.0635942, 0.05012252, 0.010617798, -0.01176592, -0.08953825, 0.006822069, -0.06014742, -0.07049438, 0.07846749, 0.014193077, 0.028576994, -0.0034399438, 0.018280338, 0.022929324, -0.056322835, 0.046496104, -0.07215614, -0.012499311, -0.07408109, 0.025462314, 0.006126584, -0.019136025, -0.002093989, 0.09418091, 0.035158724, 0.032862213, 0.0637198, 0.013559524, -0.07125411, -0.026543472},
{-0.0040315776, 0.10974089, -0.0056735203, -0.024377301, -0.014040344, -0.036879376, 0.041999713, 0.098865665, -0.07641197, -0.03120325, -0.008618681, 0.0130423, -0.07111112, -0.00016693327, -0.012187461, 0.059347644, -0.04712672, 0.024728626, 0.05339393, -0.0065975212, 0.061667047, -0.052425407, -0.023893094, -0.09067813, 0.060872197, 0.035845235, -0.027152149, -0.026748456, 0.07305316, -0.03340368, 0.035116985, 0.036284614},
{0.021494564, 0.08710413, 0.030579276, 0.006383595, -0.054384276, -0.052145485, 0.070332445, 0.04887644, -0.051003918, -0.094100885, -0.020882657, 0.014135066, 0.0123386765, 0.069291316, -0.024509102, 0.060562078, 0.011773191, 0.08142282, -0.069557056, -0.0048899986, 0.050060786, -0.03822779, 0.09980713, -0.09093609, -0.05730046, -0.041200534, 0.03690818, 0.06329547, 0.120207086, -0.13270304, 0.007884939, 0.0070129386},
{0.08201834, 0.048891474, -0.053182617, -0.01711509, -0.01529723, 0.007252015, 0.0728202, -0.05329981, -0.03567031, 0.10473856, 0.06759742, 0.01783441, 0.030929293, 0.027187433, 0.020481724, -0.07668664, -0.01807861, 0.014994322, 0.07906369, -0.06380855, 0.02786463, 0.06518297, -0.09069503, 0.022296684, 0.06956952, 0.06961616, 0.07940164, 0.012076752, 0.030864164, 0.03785099, -0.038961064, 0.08770309},
{-0.064003386, 0.060308952, -0.020107985, 0.03794212, -0.050793927, -0.06622192, 0.05786213, -0.12165328, -0.0653332, 0.026063481, -0.032546986, 0.08489835, -0.0044469386, 0.005566971, 0.016973907, 0.06864821, 0.05974573, 0.026307425, -0.022981072, 0.02540768, 0.01865326, -0.024204995, 0.022136759, -0.040615004, 0.05339819, -0.08449436, -0.064536795, -0.02762539, -0.11271066, -0.025863532, 0.028330231, 0.013791025},
{0.01769102, 0.050957844, 0.042110845, 0.005654437, 0.0387964, -0.00610099, -0.011971925, 0.056588896, -0.08502655, 0.012012663, -0.014206278, 0.17677023, 0.050467536, 0.047032017, 0.071049616, -0.082375415, -0.079623654, -0.052881036, -0.016299639, 0.030757774, 0.067145586, -0.017699234, 0.05565244, -0.02511149, -0.064129286, 0.13887215, -0.06478194, -0.0032913305, -0.003973818, 0.010861811, 0.04222328, -0.020149197},
{0.14261925, 0.075762406, 0.008005485, 0.04383149, -0.048962925, 0.0007112101, -0.042376075, 0.123120144, 0.0729669, 0.02307445, -0.0010358985, -0.016345216, -0.08534571, 0.07078735, 0.07687254, -0.018691855, -0.05322201, 0.011892199, -0.039740495, -0.09185245, -0.07650047, 0.035899274, 0.0060562054, -0.06863261, -0.03752957, -0.014810412, -0.00072519656, 0.019815145, 0.029381335, -0.11602516, -0.061349545, -0.048626196},
{0.055899803, -0.0037160267, 0.07138398, -0.01946846, 0.01914994, 0.05901058, 0.03676782, -0.0053449874, -0.04874583, -0.08411472, 0.060491204, -0.035983715, -0.04708799, 0.035421975, 0.071071595, -0.062410392, 0.051738337, -0.005259233, -0.054643456, -0.052573472, -0.086049825, 0.025416516, 0.123800874, -0.04530527, 0.0597772, -0.039307322, -0.05688964, -0.067833655, 0.025633505, -0.07739409, -0.06094573, -0.08132078},
{0.016803743, -0.025147265, -0.026384294, -0.061730716, -0.07572261, 0.03803833, -0.019824913, -0.16270326, 0.009953573, -0.16045518, -0.046506338, -0.073027015, -0.04974257, 0.04369761, -0.07973202, 0.034400146, 0.022066496, -0.05946058, 0.08031221, 0.004851551, -0.07252106, 0.022261947, 0.14459851, -0.010963522, 0.07188989, -0.14667033, -0.013778037, -0.011554904, -0.12940283, 0.037316017, 0.004019828, -0.17196628},
{0.0076841083, -0.13408217, -0.082131475, 0.06007509, 0.059239745, 0.017182216, -0.04638208, 0.010881372, -0.0633628, -0.01990597, -0.06724611, 0.06717713, 0.064778656, -0.03668003, 0.026841108, -0.052561317, -0.005368121, -0.06561121, 0.037122186, 0.069096014, -0.04885831, 0.043005407, 0.12613396, 0.053705692, 0.049332343, -0.08824868, -0.03834148, 0.07973791, -0.17592528, 0.1290815, 0.023864912, 0.052265923},
{-0.034826886, -0.059945777, 0.06560545, 0.03978883, -0.07260991, -0.03904298, -0.0068173776, -0.13347101, -0.027716253, -0.020884816, 0.006084056, 0.03755534, 0.009605874, 0.012403721, -0.03840352, 0.0063891057, -0.06622741, 0.027898343, -0.036816202, -0.06094536, -0.034875207, -0.00675492, 0.076711684, 0.07867405, -0.036290545, -0.064680025, -0.041716468, -0.052346244, -0.09492949, 0.114056684, -0.030303953, 0.023068663},
{-0.034619458, -0.21068427, -0.012056477, -0.07592856, 0.068454444, -0.03798894, -0.07120121, -0.13041516, 0.06399745, 0.081234686, -0.07277237, 0.02857404, 0.023970658, -0.02627246, -0.0920116, 0.065515764, 0.066632554, -0.036379658, 0.04460549, -0.03123772, -0.07753709, -0.047675412, 0.055326078, -0.06451017, -0.03353523, 0.004057259, -0.041017067, -0.052836925, -0.09939331, 0.1806699, -0.03498037, 0.11544854},
{-0.06419016, -0.09503095, -0.050882965, 0.05942966, 0.048071675, 0.015168734, 0.034547497, 0.023385448, 0.06324257, 0.14665306, 0.034454424, 0.11645409, -0.0055386145, 0.004881435, -0.06098253, 0.06375542, 0.0336041, 0.043235738, -0.08260107, 0.05601755, -0.076718695, -0.047110908, -0.05449726, -0.07553119, -0.045144435, 0.012482813, -0.03485495, 0.018177819, -0.109702304, 0.23636092, -0.063733585, 0.06724459},
{-0.23445527, -0.13424027, -0.07576954, -0.07932305, 0.071799666, -0.068961225, 0.061267156, 0.1041437, -0.02435651, 0.054312043, 0.052331347, -0.032555934, 0.0314893, 0.080180965, 0.036226444, -0.008320895, -0.021450266, -0.041097783, 0.06757159, -0.047288373, -0.015670342, -0.047745224, -0.10464806, 0.06912103, -0.0625554, 0.114598915, 0.07645359, -0.053513773, -0.010200337, 0.24541819, -0.07389712, 0.07535572},
{-0.22646292, -0.15037112, 0.04601738, 0.07507918, -0.025440414, -0.076369256, 0.0018920428, 0.14806029, 0.061689764, 0.10833429, 0.03271948, -0.041588716, 0.048612233, -0.04447041, 0.030560093, -0.03869644, -0.084975585, -0.047783215, -0.07584652, 0.038168605, -0.049825504, 0.04076186, -0.09648925, -0.03866825, 0.07290274, 0.17689547, -0.07072625, 0.026654432, 0.026939882, 0.116025425, 0.055732608, 0.20944867},
{-0.23893729, -0.27137002, -0.048577696, -0.028067298, -0.0148765305, 0.012001842, 0.044174075, 0.22483256, 0.07357961, 0.19242409, -0.027885877, -0.056610882, -0.062150326, 0.07453562, 0.008643811, -0.06795568, -0.07198315, -0.085899435, -0.07767465, 0.04343157, -0.01958247, 0.0123064965, -0.19041832, -0.01146729, 0.02511389, 0.28323984, 0.053406462, -0.026124133, 0.15047449, 0.3302443, -0.08135264, 0.30500752},
{-0.36029643, -0.36899596, -0.0010015592, 0.012607252, -0.003665395, 0.008075401, 0.0045623905, 0.25710136, -0.06217339, 0.19169156, 0.07967541, -0.24093246, -0.05341183, 0.046484716, 0.0708405, -0.050647985, -0.016064867, 0.04583865, -0.079241544, 0.07760566, -0.060161594, 0.022900954, -0.14153785, 0.043136753, 0.030772427, 0.24552189, 0.056567274, 0.064651735, 0.081316076, 0.37513784, 0.079374224, 0.2517135},
{-0.35445836, -0.2911093, -0.002679199, -0.042254347, -0.04331713, 0.017831706, -0.030050566, 0.19548674, -0.06942384, 0.20208542, 0.03217667, -0.17240272, -0.079116784, 0.045193296, 0.05951759, 0.01678674, 0.022451907, 0.07735172, 0.0030394713, -0.06357043, -0.023669403, -0.03137275, -0.18693087, 0.030535763, -0.018052293, 0.14464505, 0.039427575, -0.06674238, 0.14286275, 0.29032284, 0.017190557, 0.24579254},
{-0.36538664, -0.35350692, -0.053918686, -0.042661455, 0.07706366, 0.0070829913, 0.008187302, 0.3001267, 0.063427016, 0.20912874, -0.021451999, -0.15470013, -0.03832635, 0.06147824, 0.043385472, 0.076809585, -0.04367687, -0.07465679, -0.007257418, -0.0018065432, 0.03026773, 0.059867516, -0.07827258, -0.020911038, 0.0789518, 0.1538881, 0.0379213, -0.041570872, 0.15937845, 0.2984851, -0.029711442, 0.24949576},
{-0.3217418, -0.30375895, 0.08081058, -0.058112234, -0.03935247, -0.014604233, 0.008584374, 0.22799098, 0.08108358, 0.2412385, 0.026060155, -0.2250647, -0.014533032, 0.02229627, -0.08964385, 0.03623008, -0.05276481, -0.03591759, -0.021491135, -0.06254621, 0.0714604, -0.003724672, -0.19542186, 0.07175172, -0.055176288, 0.1644088, -0.036546644, 0.017760038, 0.20697175, 0.4300979, -0.06261307, 0.2641216},
{-0.24988428, -0.3159951, 0.0044884905, -0.049657706, -0.043842766, -0.013131268, 0.0011385818, 0.21484405, 0.011576332, 0.20534812, 0.049921434, -0.30314827, -0.06369942, 0.025650961, -0.031186894, -0.00015141608, 0.04102835, 0.0542127, 0.07237864, -0.010233622, 0.07624769, 0.0400849, -0.23191217, 0.067831695, 0.019732894, 0.2879066, 0.06460225, -0.08778461, 0.12672205, 0.32977155, -0.08227481, 0.2567114},
{-0.17658632, -0.2769091, 0.015275426, 0.053143986, 0.052922953, -0.06712662, 0.034221776, 0.33433717, 0.0027897283, 0.2008713, 0.0419473, -0.23940022, -0.02895301, 0.06303533, -0.08200834, 0.047268216, 0.06913461, 0.021195713, -0.024134154, 0.042161144, 0.0040995507, 0.039038435, -0.19991602, -0.080978304, 0.06920566, 0.17338207, -0.032418944, 0.0708677, 0.12482668, 0.37508652, 0.052361082, 0.35117212},
{-0.26999545, -0.23523343, -0.059357174, 0.069674894, -0.054203168, -0.07225527, 0.0066195456, 0.14539601, 0.040038317, 0.13145608, 0.052272428, -0.2412843, -0.013716257, -0.033874646, 0.020651981, -0.066786036, 0.062130615, 0.0803015, -0.063134655, 0.03431015, 0.017516647, 0.06686367, -0.17406066, -0.09121168, 0.048553057, 0.16941416, -0.055268835, -0.030268086, 0.113104425, 0.34935135, -0.04399243, 0.19955824},
{-0.15103412, -0.26015207, -0.035592467, -0.014867469, -0.043161333, 0.0825492, -0.014115773, 0.15902433, -0.049753312, 0.12257888, -0.08361226, 0.055122487, -0.025238624, -0.019686053, -5.9720103e-05, -0.03797987, 0.0007828772, -0.053239793, -0.06840543, -0.02365104, -0.07029841, 0.04034975, -0.08037247, -0.03672617, 0.050683647, 0.14166813, 0.018182755, 0.029510012, -0.071754724, 0.30895585, -0.02646001, 0.15955769},
{-0.1504893, -0.11162606, -0.08527463, 0.043216188, -0.043350376, -0.05177897, -0.057876315, 0.042572167, -0.06815029, 0.13695322, -0.0472824, -0.035544258, -0.082941346, 0.079307646, -0.06887429, -0.07874641, -0.07143434, -0.05908729, -0.012336853, -0.041768905, -0.034414295, -0.07594279, -0.018000562, -0.057134103, 0.027678534, 0.13694283, -0.044448167, -0.021734267, 0.012276219, 0.16282679, -0.045134667, 0.05334563},
{-0.05958788, -0.22494426, -0.079842456, 0.02346338, -0.0021143178, -0.014830671, -0.029535877, -0.04152682, 0.013745308, 0.042386968, 0.007990932, 0.053184927, -0.075798474, 0.011675294, -0.07309621, -0.054811962, -0.07676564, 0.0050104535, -0.0451381, 0.005320714, -0.02430581, -0.060982186, -0.01806844, -0.06673481, -0.08592896, 0.018541904, 0.021225046, -0.0753674, -0.023246638, 0.2599556, 0.024450192, 0.0055565108},
{-0.11889568, -0.1555567, 0.009726033, -0.03069438, 0.017112507, 0.020617716, 0.053308956, -0.13462056, -0.020270832, 8.615869e-06, 0.07937779, -0.095359884, -0.0016891045, -0.043232787, 0.0047659194, -0.038159795, 0.012526169, -0.05424656, 0.032028433, 0.06683766, -0.055884458, -0.05941602, 0.04848207, 0.0057824207, 0.015193441, -0.018669754, 0.007483553, 0.04237425, -0.12302685, 0.06154196, 0.074788615, 0.1169367},
{-0.053549178, -0.020412529, 0.02500949, 0.058811996, -0.00879701, 0.0033541098, 0.06775709, -0.00036710053, -0.0126405135, -0.011435329, 0.044658594, -0.057871778, 0.00023436036, 0.03619209, 0.007880702, -0.05491803, 0.05038047, 0.0004628219, -0.07544509, 0.0361871, 0.059373178, -0.041725215, 0.08344204, -0.00679921, -0.07985187, 0.010964589, 0.0678242, -0.07968869, -0.057765745, 0.0683051, 0.078467086, 0.11836291},
